-4.458325894345352425e-02,1.186042457042435633e-01,3.210226024590601829e-02,-9.470476540933867385e-03,3.896297525528417960e-02,2.602954831483140358e-02,2.349284381659957899e-01,-2.069129005042216057e-02,2.637608564457386007e-02,6.185729495335468009e-02,-1.760051604525645352e-01,-1.474583282238173532e-01,7.727466211349562353e-02,-7.817352563503257579e-03,-8.150950527182604377e-02,-1.022526380950841418e-01,4.812662837199905425e-02,-1.011442802330138335e-02,-2.031135337577745503e-02,-6.614422833972818938e-02,3.184484570414159929e-03,1.311111918318825231e-01,7.957220680152636560e-02,-6.146787979572607141e-02,1.826456962982164756e-01,7.421642338555249629e-02,3.533280055231467764e-02,-1.340203891599610342e-01,-1.916556434132286879e-01,3.269591196701669700e-02,-1.656361314910737292e-01,6.922009961482862572e-02,-4.867267628643524163e-03,1.715886406543511711e-01,1.052884889723355588e-01,1.318718765820862948e-01,-1.158132911310339325e-01,-4.299170929514892908e-02,2.764540850671746708e-01,9.105015394131513173e-03,4.578390488937461589e-03,3.122015906422002940e-02,1.035921954571687315e-01,5.338145282601838154e-02,-1.458899699088989643e-01,8.543921636937742980e-02,-1.069156458042230251e-01,5.217837998599393623e-03,-1.140630824358507267e-01,9.866589528242111773e-02,1.945771804213896825e-02,8.379168305051667986e-02,7.001625898384154431e-03,2.191674624566458118e-01,1.094035777562601258e-01,1.386081565085360290e-01,-1.484186650749199504e-02,-6.189318403643405408e-02,1.109705579662144670e-01,9.296991896535775068e-02,1.344122001757378504e-01,-1.535947438089919903e-02,3.829118416901849259e-02,1.774333651402671547e-02,-4.617319667005428951e-02,-8.019669660722812676e-02,2.136067472360273466e-03,-2.942960921059226131e-02,1.679356250249894322e-01,5.018912111606128185e-02,-1.582754420963345121e-01,2.163129475968099402e-01,1.284221498980818998e-01,-5.304103288644491931e-02,-1.473255695800008425e-01,-1.353224991956872986e-02,3.779106449357247377e-02,-1.836508733950528716e-01,3.633666926163495181e-02,9.142685891856824898e-02,3.152705423342591629e-02,-8.200452981466929692e-02,-6.160139424839455868e-02,-1.413392964649680741e-02,-2.262346653617709410e-02,3.500425327434546208e-02,-5.192809073983256640e-02,9.417216715675888472e-02,-5.324543562226398408e-02,4.083376065475770311e-02,-1.346909305639782395e-01,2.130536779164397473e-02,4.775274394538613770e-02,1.208349621678489749e-01,4.533584048114792237e-02,-1.817372756701601116e-02,-5.597693062189923463e-02,3.286143096472313868e-02,5.501595437914928027e-02,3.535383977493237323e-02,-1.673183983954058540e-01,-2.883459480793722218e-02,-1.135830592291711683e-02,-4.476708667026367550e-02,-1.853607402961087447e-01,-1.968614833179637563e-02,2.460713830357590809e-02,-2.154679712263848912e-01,3.412351401579388072e-02,9.983416471075012844e-02,-6.124348722282588198e-02,-2.692877271215115415e-02,-4.618022433642839097e-02,8.031597491742012429e-02,1.779855464991602632e-01,-9.686221216460770556e-02,-5.669512810288155485e-02,1.318592486256894014e-01,3.426526292700411702e-02,1.186742732544756596e-01,2.376442269962812312e-02,4.577751431593814202e-02,-1.163536719867696440e-01,-3.817035766093414273e-03,1.900435782404701762e-02,6.535589154777183760e-03,-9.073316305178504015e-02,1.315465620329035190e-01,-1.119085053001211694e-01,-3.939948009982412874e-02,6.403612531626825394e-03,-3.170720048562092330e-01,-7.815684056309302186e-02,-1.703141013464523623e-01,-1.658536997990397166e-01,5.606425255274427588e-02,-8.865978432780446949e-03,6.651130657977571969e-02,-2.320081469915472039e-02,-6.910533487069936420e-03,6.939245717903222421e-02,1.893661640848306321e-02,-1.126401099360995750e-01,3.672305565306852038e-02,1.203866965233617858e-01,3.340252823850845681e-02,-2.154100694294929508e-01,-3.454693991698741529e-02,3.878158616417105159e-02,4.174749037827689413e-02,-1.471246708403807502e-02,2.955485905107954614e-02,1.560606324980105819e-01,-4.295208103982314785e-02,1.946996699299637645e-01,1.873164753409620464e-01,1.051477353493713018e-01,-3.177581674485360774e-02,-1.417633428633282289e-01,-1.577196377886263545e-01,3.483608408108557208e-02,-7.659358830471649227e-02,4.721509849703724171e-02,-1.265653873950968733e-01,1.299585729981810045e-01,1.092983461766151576e-01,-4.980833708617522781e-03,-1.461279050021927761e-01,-1.390792215352788797e-02,-1.573469509898266505e-01,-1.642594346233536978e-02,-5.693993018422427443e-02,5.925315602393753378e-03,-7.539846523094483055e-02,-5.345659495100734543e-02,-2.094841907887010357e-01,-2.385686205163659729e-02,7.181081248363160863e-02,3.407007929855145750e-02,2.889621211883539043e-01,1.008353718032727608e-01,1.391462751165566392e-01,-1.504411969854231937e-02,-5.788241267442723048e-02,7.506449006233963106e-03,-1.149964313938804938e-01,5.011110631647748559e-02,-5.772821743780343073e-02,-9.715788949216826176e-04,-9.779002570854797294e-02,1.552403388983824017e-01,-2.294387247254884021e-01,-2.335071820287741573e-03,-3.000106444225940083e-01,7.978427144325048181e-02,-4.971935493896263714e-02,-7.838020702259293482e-02,-8.465493652868669866e-03,5.697602949430939645e-03,3.792830794090235047e-03,-8.952549156622993665e-02,-1.229921429734399940e-01,-1.220335922749962720e-03,1.314574733324905265e-02,3.179836779962184057e-01,-3.966600488720936624e-02,-6.259371835473261439e-03,-2.845602004160141529e-02,9.172843440166202067e-02,6.468338987890978609e-02,9.065547178668179051e-02,3.356439366012309300e-02,-4.117628127926858950e-02,-8.011650269585023076e-03,4.878066020427313659e-02,-4.429736155330363245e-02,-1.431599213481374866e-01,4.815317082968915974e-03,1.092009809702868817e-01,-9.363668842752727317e-03,-3.892148109117946064e-02,-1.984733412180295642e-01,-1.118987737320528419e-01,-1.246076572235290392e-01,-2.601586237026152215e-01,-4.405993083949540784e-02,2.107209016639009086e-02,-1.358537511511526963e-01,-4.463542614087857852e-02,8.290564336235892173e-02,-8.292748454108025968e-02,3.185359176525012076e-02,1.874939983240331981e-02,-1.394088868901514899e-02,7.765071851294200189e-02,2.048779463645331034e-03,-4.347011067111149207e-02,-6.769508453832914774e-02,6.191945701952233927e-02,1.207146406611573491e-01,7.726394827743268690e-02,1.474541034748654000e-01,6.614397463793690590e-02,-1.158812401628055988e-01,-3.528499285295058630e-02,-1.246426778584875938e-01,1.139483073596838925e-01,1.393471248784702021e-01,-1.073882496865487257e-01,-1.008166416628778483e-01,-1.568843505011035810e-01,1.659609986450200081e-01,2.464451295756054927e-01,-1.709479144047697588e-02,1.763185306122597718e-01,-8.107242918398059606e-02,-1.931876584009026843e-01,-1.408445736679892757e-01,-2.070543466660486054e-01,2.093087332966105107e-01,-1.121716666977019272e-01,-3.046050790910518336e-01,-1.602228061462051545e-01,-1.268403500722124488e-01,-9.483001792849604650e-02,6.830735852387719020e-02,1.180543560330248737e-01,7.160076048737213511e-03,1.330394149442217233e-01,-6.276814647262321523e-02,3.573860606343770008e-01,2.401174773907438845e-03,6.767658401372710075e-02,-1.149503842704752421e-01,7.027033524746259530e-02,1.516709445082222163e-01,-6.517214209129623681e-02,4.022192135322650436e-02,1.617093997060783245e-02,-2.254394487406133074e-01,4.888746210728914937e-02,-6.623131990584614492e-02,-2.414643158148190027e-03,-1.585767967257502298e-01,5.611301463655099520e-03,2.719421836850403201e-02,2.373755885446242331e-02,2.272017506969369396e-02,-1.417319695024362725e-01,-3.672287110660191756e-01,-1.872508976899082689e-01,6.179723594264244224e-02,-4.936743083879692462e-02,6.462668155614743892e-02,9.181197889341788376e-02,2.870774072396129473e-01,7.330463820594523838e-02,7.120598018644239136e-02,-5.771557750588759972e-02,5.675558254907023259e-02,9.686147540855764848e-02,1.807291667267378610e-01,-1.906831567483260881e-02,-2.700435460335999516e-02,7.938050073011729268e-02,-1.868564530531148238e-01,-1.153303520837943297e-01,4.988904323501251736e-02,2.070762274427787597e-01,-5.053917387034424780e-02,6.821950681362538849e-02,-4.496354722507099611e-02,-3.353186798443232725e-02,-1.054777154816029239e-01,2.660653653267817664e-01,-1.526928857716852161e-01,-1.940329437676451274e-01,-1.291694996234048765e-01,-1.880432725233076030e-01,9.767203521497513918e-02,1.276083294127528661e-02,1.948951457876230697e-01,1.737708216135600281e-01,2.722821675711942224e-02,6.067566823366002393e-02,-1.460888645086137194e-01,-7.762835037209206424e-02,-1.090821670648985109e-01,1.893752489404148392e-02,7.888484816318491397e-03,1.117462188248220106e-01,1.083134132382656545e-01,-1.895913919522255742e-01,-9.150418165483507893e-02,5.815342434857086185e-02,-1.319356311478291632e-01,2.587521757452443741e-02,9.295938933376290958e-02,-1.340680670144124842e-01,-1.969601869902275551e-02,1.562856111566686135e-01,-1.678508639719271112e-01,-2.325891141185943214e-03,-7.983280922442623218e-02,-2.016639056814414216e-02,-1.677140437903874848e-01,-2.269767898126403838e-01,8.926378947307475609e-02,-2.250508936034659180e-01,-2.317554551063130130e-01,6.735523925718087113e-02,2.269600609598895757e-02,-1.508696843296614409e-01,2.685049980620474869e-02,3.808931450409762387e-02,-1.632308158616403437e-01,3.244664432077255800e-02,1.765703238527969454e-01,3.202139187675084875e-01,5.415917592559417459e-02,3.703941260835788007e-01,6.028952449371509370e-02,2.411632339464562236e-01,1.038806804260459099e-01,-2.052246781033177300e-02,-1.085777616670758339e-01,1.250393861854797728e-01,2.123948350739882779e-02,-1.549286172802987749e-01,1.157162585142779837e-02,2.908237861064366658e-02,-1.211137029049572100e-01,7.349340477827598361e-02,-1.033133335436723643e-01,-3.610053983635291147e-02,-3.106473541742360012e-01,-1.780571726440605684e-01,-6.910949760780224493e-02,-7.076809679540879694e-02,-1.157946962575138738e-01,-5.100984267531963323e-02,-1.638246587270776947e-02,-1.297603106813084370e-02,1.329962543422464893e-01,2.321176524265861074e-03,-3.764200124341045284e-02,-1.516695971984911573e-01,-6.243516943480642567e-02,6.543332795669100366e-02,2.275235446959985308e-01,2.884922498829051718e-01,-6.366962716710714010e-02,5.462687545619980545e-02,-2.251986190360104612e-01,-1.074401444026108488e-01,-2.345961818099880913e-01,-9.725004121396874091e-02,9.197576941892333935e-03,-1.102596929108735496e-01,-1.688903619416802504e-02,4.677222911812806833e-02,-1.734979552986622431e-01,2.191542691188430036e-01,-6.412645465963145996e-02,-1.241448733244063796e-01,-3.658486298631499073e-02,-1.147934756086889663e-01,-2.418235029608362119e-02,-3.632530037698416397e-02,-2.184340013171134354e-01,1.685421041656243735e-01,-7.877721774747321881e-02,-3.974919695425839505e-02,1.236440985326758835e-01,-2.119548633827696496e-02,1.907986075295086403e-01,2.375092521572328141e-01,-1.028133486475097808e-01,1.234929532384618223e-01,2.377848824106814085e-01,2.004356731385885937e-01,-1.988875656527170840e-02,7.294933152177683622e-02,1.892321600503588663e-01,1.073908053350268454e-01,-1.047422373820602881e-01,4.533049045360429755e-03,-4.618728459015120774e-02,-2.322384850374863141e-01,-1.701921686798248401e-01,-7.437834734310923290e-02,-1.749872480650991324e-01,1.660475432372140736e-01,8.088721629135298130e-02,3.468356504012718999e-01,-9.789879816257160416e-02,-2.606951593496536351e-02,-1.632419664299821216e-01,-2.531188349156774375e-01,1.221821479730559740e-01,2.672020307425242158e-02,-8.988779888850023658e-02,-1.762355967843192150e-01,-2.910313957949487995e-01,-1.902035659489399733e-01,-7.389490788178060265e-02,7.629027082281164551e-02,5.902068796577987497e-02,2.592123078415129456e-01,-8.371915361974040237e-02,8.367845082258652811e-02,2.102487061678509073e-01,1.003835302027405313e-01,2.817218598470284663e-01,-1.650269288261092468e-02,1.101114336602692506e-01,1.351822241846139527e-01,1.683048738693626589e-03,1.256382948210318234e-02,-1.636992688362183535e-01,-6.609926086653669652e-02,-7.744590906024725885e-02,1.182018875886230863e-01,3.250823686493908848e-01,-7.655433421678461969e-02,-3.088649123327136814e-01,3.544364231525385517e-02,-5.131425391568483069e-02,-5.774380012138945889e-02,-1.970530100086509417e-02,8.806475610200933946e-02,6.431289853674898582e-02,2.948793504710012225e-02,-7.821066430755845011e-02,-1.655567194195317615e-01,-1.217808045303202802e-01,1.442948390314938156e-01,-1.640624211498764029e-01,2.184770597405970016e-01,1.193607972257140493e-01,-3.171884283576148489e-02,3.756571591154691386e-02,1.394830381529699459e-01,1.475011221572815057e-01,-1.091792120878126160e-01,-2.768514593013119210e-02,-9.634338196827368916e-02,1.394908498521598150e-01,-8.426320660133507223e-02,-2.740681332674892445e-01,2.733676892132479441e-01,2.079054094589559976e-01,1.258353225137510412e-01,-8.629494491080641483e-02,-1.109417423351624493e-01,-1.150722103444225819e-01,-2.646504688430688645e-01,7.358646008956423734e-02,1.547276907416303415e-01,1.479062824896740236e-01,-1.093390735752421128e-02,-1.373236036540583481e-02,-6.604574173132465864e-02,-1.786065103173018198e-01,-1.187333244670453203e-01,-2.809213903120231365e-02,8.511032348737572473e-02,3.850138528227722151e-02,-7.978014137040969136e-03,1.111750034552370647e-01,2.364933879472388978e-01,-1.049487353900456221e-01,-1.399680525550511812e-01,-7.736816949829559975e-02,-5.282097087138801911e-02,-1.683012781297730243e-01,1.412845853266514462e-02,1.303545830659560145e-01,9.319266179746219306e-03,-2.056935432455753165e-01,4.530279445621256812e-03,1.210094626149995634e-01,-8.945246982889290543e-02,2.373816611198565837e-02,3.345844435668581668e-02,1.670265388068704060e-01,-2.672212623963849953e-01,3.116596906637630199e-02,1.747772203369032940e-02,1.355465844516094975e-01,-6.222938376535440755e-03,-2.656115967583784140e-02,-2.123651931978043361e-02,8.491142882791148649e-02,8.262348596940212453e-02,-1.548586742257761911e-02,4.816046554337138907e-02,-1.697290402373791418e-01,-1.146031299986236540e-01,1.512611991103579023e-01,-7.556833891452212348e-02,8.658578330741276141e-02,4.234794260319187098e-02,-1.674799713023777947e-01,2.614906965170672032e-02,4.152317589899739286e-03,2.878164699054523989e-01,-3.408159124186047051e-01,1.061694070110436733e-01,-4.519758187807291355e-02,-5.298694794786806828e-02,1.265717602085691673e-01,1.705884029580121974e-01,-5.000867798584946594e-02,1.829108208577562567e-01,1.758570489074331444e-01,-3.620578405358689245e-01,-1.953337255858286770e-01,7.130497693372109258e-02,-2.309350856916337624e-01,-1.450962996119861959e-01,-9.991152130256905628e-02,1.924727631238561942e-01,-2.713370213160229416e-02,1.455692201954716936e-01,7.229357215385888435e-02,1.793658581568928212e-01,-1.262717141952846012e-01,2.285208426919964064e-01,2.763534826424670077e-01,8.745503012621831662e-02,-1.401776773274285848e-01,-1.530681298266908102e-02,1.561083189387665604e-01,5.264229260195718574e-02,-2.196468674327335391e-01,9.405232352972554832e-02,-4.881790331189640730e-02,-4.213615608868888363e-02,-1.307298052523678533e-01,-2.081199667106835016e-01,1.218298988564627816e-01,1.228876654164658133e-01,-1.151544002459458510e-02,1.777358111033289223e-02,-9.407943585613556814e-02,-2.005438956346655699e-01,-7.450986435645261252e-02,-1.341777787651986797e-01,-1.915492793844399411e-01,-5.871294793432467463e-02,-1.318866179799392802e-01,1.735904726692629740e-01,-9.071803618415200110e-02,2.832863233022044069e-02,-7.175274234744441482e-02,2.812298788721557391e-02,9.904776585990222870e-02,1.669008717777794096e-02,1.387935093890856064e-01,2.409688894337858600e-01,-2.809877401015762471e-02,8.046110781683678270e-02,3.288108654371199036e-01,-2.285115459270611535e-02,-1.601422417488821207e-03,1.503768127745970865e-02,1.897540642001494526e-01,-1.277558621027654329e-01,-1.464718077288254816e-01,-1.205436500725799998e-01,-1.049127140934690283e-01,-1.303524434519709452e-01,-8.734037768230010212e-02,1.038964892833686704e-01,8.121595887109325784e-03,-1.922667673712558645e-01,6.498485346295196363e-02,-6.828010848864732307e-02,8.545456063656346746e-02,-1.784182365864999120e-01,-7.257051561598980294e-02,2.173074952428476481e-01,4.711938582104016615e-02,7.337252639293284640e-02,-2.290318364102194026e-01,-1.469323732509296432e-01,-3.712612807506613516e-02,-2.853035940234441292e-01,1.541309788028602523e-02,1.496595268984438343e-01,-3.496310830608325045e-03,-2.406467809251129977e-02,7.689589365757483475e-02,-1.736727024198576885e-01,1.301843599625341352e-01,-7.735555969722111500e-03,1.803702157784492499e-02,-3.096285825367087879e-02,-2.614392808036870158e-03,9.155191234614841467e-03,8.467335178584708966e-02,2.026461930292460245e-01,1.465900789315435770e-02,6.907335704853356795e-02,1.949910579226600202e-02,-1.017064864226068129e-02,1.212878197399403224e-01,1.604820851483086674e-01,1.093025267082343432e-01,-2.718824077451544030e-02,-3.690462114971564123e-02,2.108334686595845220e-01,-3.968929335831317129e-02,-1.729188081473105598e-01,-1.897790003929701041e-01,-1.663395821664080398e-01,9.785838108384355138e-02,1.977811957660401410e-01,8.889553812173800473e-02,-9.874509045515192374e-02,4.443477295022361939e-02,1.973159485034790550e-01,1.801084975406463951e-01,4.370248891043381628e-03,2.169313086470721005e-02,2.119365230996231309e-01,4.922763968902480608e-02,3.627537521637291124e-02,-3.805011335120617733e-01,-2.746821244336993817e-01,-7.993531523712479880e-02,-5.450281035335274860e-02,-2.522928148064090825e-01,1.267182372068409446e-01,1.454544169411435203e-02,-2.708093858904702111e-01,-9.794969193805894148e-02,-2.361904616347286212e-01,1.259082069707425089e-01,-1.607456057434590579e-02,-1.203075933466965231e-01,3.864611620634014200e-01,-4.039109558415888979e-02,-1.518733217883842454e-02,-2.916609302419970184e-02,2.605855325980541704e-01,1.858575779727713595e-01,-8.066087604545855994e-02,4.768826920456115809e-02,-4.925145068779513552e-02,-1.373243441325886216e-01,1.634428927866730663e-01,1.245772105845931454e-01,-1.521152510968697691e-01,-9.412785002520446254e-02,1.379983251482845008e-01,8.535393427751158946e-02,-2.356012857441707603e-02,-1.000066265080180455e-01,-9.014661516177510658e-02,-1.899160526202325616e-01,1.563339905097113625e-01,-2.156842912546275692e-01,1.060031777453815105e-01,2.235358899783975728e-01,1.689176345979120225e-02,-8.143784516744738411e-02,-1.174936051782660973e-01,1.257887712871467306e-02,-9.294402097234841231e-02,-7.106518039568603118e-02,-7.895344323291236810e-02,-1.623262142514144135e-01,-1.514404856164908719e-01,-6.095565084877618833e-02,-4.239189676572574506e-02,6.287480224745965740e-02,-2.146032830204623321e-01,-1.458827807869649273e-01,-1.961697577186703734e-01,-1.830351771116579818e-01,8.715959606759944578e-02,-1.808213821589094994e-01,-5.862911391873048411e-02,-4.331492369361434475e-02,-1.924348304176598523e-01,7.107696215765523656e-03,-9.399457615405001909e-02,-1.518096736266479618e-01,3.425283962300971347e-02,-1.734757709502018908e-01,2.335610947313577351e-02,-1.762341358227187960e-01,-7.044937003549983645e-02,2.065535543305433222e-02,-7.535613581081003487e-02,-1.359099929894640180e-01,-5.584921795886459150e-02,8.046426892440951273e-02,1.197865200078346466e-03,-2.501861971308857457e-01,1.298409163035272595e-01,-2.439874093168831887e-03,5.975176055429862187e-02,4.986255744613057178e-02,5.581409241184157738e-02,1.419250405862306497e-01,-5.218783269222612708e-02,-1.344912160470447537e-01,-1.938832123779276606e-01,1.728581924191593400e-01,-1.469115579980811159e-01,-1.919804492088960854e-02,6.914533048818788386e-02,2.676290665250763423e-01,1.334579252094255652e-01,1.788578664620498748e-01,1.680218952390193088e-01,1.789111645627398939e-02,8.825923726687297244e-02,8.698552521694379036e-02,6.076734008807171961e-02,-1.016467689369842109e-01,1.458646991337529397e-01,2.493229818845243279e-02,-1.998304588942886595e-01,-1.132805928274782242e-01,6.382338505114243388e-02,-6.446860781644617178e-02,1.312781337573042106e-01,-1.886536844623881159e-01,4.374672004855859747e-02,-2.498034845791596154e-02,7.697341633238030667e-02,5.946107668410337277e-02,1.714796818625077268e-01,2.575344831236079379e-01,-4.122495678457824275e-02,2.849109420019206862e-01,-2.443655042721694648e-01,1.350398601781017116e-01,1.382596336009339968e-02,1.407982347629485945e-02,-3.630138934560318137e-02,9.034159891051504743e-02,4.779157349754976220e-02,-6.487651115482885589e-02,2.635861893942674505e-02,1.452696187880404000e-01,6.597987531690821528e-02,-4.941760665006432462e-02,2.214598900114922164e-01,-2.852650218898104550e-01,-3.656217618618349402e-02,-4.385091908759099905e-02,5.969488444280003636e-02,1.000490221940115720e-01,-3.253700507299320255e-01,-2.733860787368835310e-01,7.637140022284767682e-02,-2.176919596589135808e-01,1.587287110614987451e-01,-1.549779877506669568e-01,-5.404661803665083974e-02,6.934669659635156469e-02,-8.035481461837995498e-02,6.239649564679902727e-02,-2.248369810914379804e-02,-1.039589271653368480e-01,-2.329633895060073678e-01,-1.627721377203543429e-02,3.951401459046274822e-02,2.716603718464965372e-02,1.887078978279857489e-02,-6.479616475158374300e-02,-1.974917967350729719e-02,-1.581015397149045099e-01,-5.640263963907640732e-02,-1.567123635599194098e-01,9.073677528000850118e-03,2.872783910729449774e-02,-1.647704487406588883e-02,2.749615753111005548e-02,2.278780981393858096e-01,1.368287119172134914e-01,8.121987192131460698e-03,-9.770395552613445056e-02,-4.853416002166769522e-02,6.260598427431543489e-02,-1.051798472230661141e-01,9.027273946211297750e-02,7.955234339921468667e-02,-6.977406057548229956e-02,1.531494502995774942e-01,-1.728881289003401239e-02,-1.299186310610523365e-01,-7.732565696419069212e-02,-2.011698120375310372e-01,-8.670150459185431424e-02,5.573849472001663613e-02,1.065735898246564506e-01,1.766986085072084489e-01,-1.529354584433851583e-01,-8.976973699941812046e-02,-6.160912396150403092e-02,3.220294598168878947e-02,-1.961347558300563787e-01,-6.649905645162189349e-02,1.107251003294581204e-01,1.909235998985417404e-01,-1.302012879302411330e-01,-1.255836448443950482e-01,-2.946038235549948425e-02,-1.915778677526932261e-01,-1.819897028483247539e-02,-2.383095911366510389e-01,-2.051393929138780048e-01,-7.828802742236082302e-02,1.236692298655312633e-01,-1.933618911264272655e-01,5.152984997111038218e-02,8.575471073711017633e-03,1.348971746600919341e-01,1.561726500846701837e-01,2.745296750189770707e-01,1.444731178142326933e-01,1.907782469770258893e-01,1.002842751420161133e-01,2.172616630777308988e-01,1.383152385352589553e-01,3.108679979925947356e-01,3.105242856314902600e-01,-9.003548009219489168e-02,-7.156763985820713270e-02,-1.824477227719824013e-01,2.596321738193876211e-02,-1.732424530659933959e-01,2.095558627228185158e-02,-1.363153075680977044e-01,8.007333306764370662e-02,6.090556634009963721e-02,1.608155219736795982e-01,-3.617917788400130952e-02,-3.235729111142746084e-02,-2.996661259783209991e-03,-1.760098465482244634e-01,-5.501650099663714377e-02,-1.180785014924662646e-01,1.743825684375309160e-01,6.810711953802021934e-02,6.569658550366655470e-02,-8.618027473859078691e-02,-9.703511747949554456e-02,1.921810929838126472e-02,-1.297087630123021917e-01,-7.959442963111518221e-02,8.270442172591274677e-02,-1.861070659820096562e-01,-1.640980672530471633e-03
-1.160761156825363960e-01,1.419268868496862401e-01,2.048607573612685195e-01,8.544407218029903550e-02,-2.395502806089057080e-01,-1.760408684517059674e-01,-2.296668781580398777e-01,9.229322811569729001e-02,-2.267239914799196177e-01,-1.846236845602792220e-01,1.684071666128806877e-01,2.453526385283143485e-01,2.843321807940708545e-01,-1.685577553245914961e-01,2.579901556834937049e-01,4.023351350659402081e-01,-1.287062561605830657e-01,2.589401590740580961e-02,1.160892402135905721e-01,1.636989297285841305e-01,1.848788479477004865e-01,-7.617499992139675768e-04,-9.670641055530582175e-02,6.387510982838817686e-02,-5.088977942535354293e-01,1.380679809473625008e-01,6.408238617042505414e-02,-2.036991072703425720e-01,1.906283092809696322e-01,1.256442611909333040e-01,1.093719002221243963e-01,2.320959480056699054e-01,-6.732992933176273898e-02,-7.991642405007171046e-02,-2.043701985976283941e-01,4.256228623268187850e-02,1.665094726564980698e-01,4.723881835841192700e-02,-3.591346676631678170e-01,-1.529717160382014773e-01,-6.259453545351323367e-02,1.534010341262531663e-01,-8.016102257832036226e-02,-2.553132588744849718e-01,9.710704783691836983e-02,3.518665160282937743e-01,-3.244952671691295754e-01,-5.389330361700339633e-02,9.212500058856554208e-02,-2.042873832869543937e-01,-1.581416169834598540e-01,-1.437911400347239299e-01,-4.166370928743157176e-02,9.665938667404694318e-02,2.567059970761166321e-01,1.430813194452410508e-01,1.228937292834620942e-01,-2.565436597240766670e-02,6.238122208883167819e-02,-2.076607586381141735e-01,-4.880598629120169729e-02,1.093323200023018638e-01,-1.658199554094709205e-01,3.446906483889489170e-02,-7.162968239532696568e-02,-2.694635437206022166e-01,2.394858999311454406e-01,1.327942593649767966e-01,2.247749124385506336e-01,1.510418231888478457e-01,-1.448016205244806454e-02,-1.925242915794933563e-02,-2.166112961883251975e-01,-2.261928035181289820e-01,2.209978747033339852e-01,5.029370737516426493e-01,-3.293697423537670366e-01,-3.002322153350641676e-01,6.005252580280961983e-02,4.893870672590117099e-02,3.277204253322937300e-01,-1.038710301841886396e-01,-1.663698708386837088e-01,-1.468683484534890615e-01,-5.997683082086469053e-02,-7.927761084762730004e-02,-1.983584160705044175e-01,2.920960587619158000e-01,-2.063823780743246905e-01,1.178652027838907879e-01,6.439807813076436904e-02,-1.211956342456742552e-01,-1.774653154025406243e-01,1.987192468658506295e-01,1.218905339527142084e-01,-3.148422024723063206e-02,2.133747461712587334e-02,-1.344180910646025628e-01,1.257105630995388745e-01,-2.983856204119431643e-01,7.633244706078523567e-02,4.521334637707478121e-01,-1.347466090973460373e-01,-1.886588657442288541e-01,-2.973704013408129398e-04,6.668461928828423035e-02,-2.221102965487714576e-01,-2.203907995363562078e-01,1.638379558128134628e-01,2.427126673773140064e-01,-6.499415519521656304e-02,-1.604105455365475441e-01,1.789238352696254086e-02,9.656682627884072279e-02,-2.756447351268022095e-01,-1.469407456555538172e-02,1.833102616843286237e-01,-4.627573738200249087e-01,1.780325567411301657e-01,1.579603753235586661e-01,-1.288759865219043510e-01,1.343414241485435534e-01,-4.930862110427136624e-02,-1.371878201052391111e-01,9.070503445090383199e-02,-1.338042786970150555e-02,-1.757515051227235281e-01,2.480352454180290156e-02,-4.732201703347038713e-02,8.908889341065651113e-02,5.494873486811224783e-02,4.241769086189771665e-01,-2.121730502062332269e-01,5.694183271874264651e-02,-1.056290595895438278e-01,1.046066487461422279e-01,5.550248011737812792e-02,-4.033577434733126577e-02,-2.185833933865465317e-01,-3.649382940299664702e-01,2.207156755024813899e-01,-1.111906867524700138e-01,-1.982277307198744287e-01,7.571308677069787940e-03,-1.280771449030030373e-01,9.356297832098336986e-02,-2.023998564029783065e-02,-2.229959525670055509e-02,5.443922378945986740e-02,4.080687872538713012e-02,1.772092905830212617e-01,-2.994278118196366245e-01,-3.073111183597502238e-01,5.291853921094991087e-03,9.719475775332020451e-02,1.169408176929428445e-01,-1.839224676094403099e-01,1.740064439626950454e-01,1.358554846834062468e-01,-3.142997423830559134e-01,1.127370633724155136e-01,-4.283064684172799286e-02,-1.897223851009476325e-01,-1.542156120596048785e-01,-8.463826192805179449e-02,2.290729499394276170e-01,3.868174016053471664e-02,-2.183154267476948851e-01,-1.751456499131437416e-01,4.097890625866063008e-02,1.297230717296274927e-01,-1.947321240338284465e-02,-1.784761776722300075e-01,5.302499572632634051e-01,1.143056984246580976e-01,-1.208561761923151456e-01,-4.985009869664103199e-03,-8.400484697430721237e-02,1.228837681795084125e-01,1.135569286324603633e-01,-4.718282514759264412e-02,-1.186228365624469872e-01,7.489731236891705723e-02,1.796873355202427414e-01,1.573344131277224500e-01,-9.805317961999349130e-03,-1.880913021926103879e-01,1.404090439606487939e-01,-2.626287737976168435e-01,2.110260954164649982e-01,-1.110269764755770217e-01,3.715266651469089076e-01,-1.785898920728085093e-01,8.696068299177872607e-02,-2.145232035957566064e-01,6.086677306085364059e-03,-9.879286174723966862e-02,2.508015292950910302e-01,1.436481995717985294e-01,-8.367114328414382296e-02,2.365682278731517929e-02,-2.379047105659916062e-01,9.974056334987901895e-02,-1.021584496717128365e-01,1.491285827979791367e-01,-1.124465292933990446e-01,-4.001770842892216073e-03,-4.783436613332037179e-02,-2.563164171805517588e-01,-5.582390005302584335e-03,1.021015828181331964e-01,-1.938800553589671294e-01,1.650078369953323909e-01,1.667942191670924723e-01,7.847775186069283482e-02,8.428315595058200049e-02,-2.217400670766478399e-04,2.341572970244479857e-01,-3.595939389637702321e-01,-4.198373057239190853e-02,-2.319971344303292105e-01,-1.364993018918593259e-01,5.399331655547945363e-02,-7.506674104161825678e-02,3.249074244568858072e-01,-2.634738357289501121e-02,-3.750646212538034652e-01,-5.022517627498934711e-02,1.117438722657692063e-01,-1.081397712882216089e-01,2.199772500473150538e-01,-4.645854847446140301e-02,6.455697524752024297e-02,3.584440829556589936e-02,1.101041180017169330e-01,1.248328494650298159e-01,-1.722534656907382944e-01,2.465478736850089669e-01,-1.122371443161697124e-01,-2.989272359706123261e-01,-1.818989094814632557e-01,-1.972774282839705462e-01,1.262193658287650289e-01,8.323685857354157225e-02,-6.423676574558123686e-02,-8.381163358959520249e-02,-5.237903971181212537e-02,-1.537044551530598602e-01,1.879577747513297981e-01,5.753625482191826457e-03,-6.602715030545325270e-03,-1.731606854645034721e-01,-8.654903598265606401e-02,3.927060555420658350e-02,-4.698644925452677423e-02,2.671805065644831112e-01,-1.355495832545065005e-01,1.242175860078985616e-01,-1.580662993985570974e-02,-1.057840170364426902e-01,6.391017691612665974e-02,1.524693261387112253e-01,-9.128214475647877801e-02,2.109027156785592272e-02,-2.985839463524919690e-02,9.259416779732299041e-03,5.456374657473317402e-02,1.626026388943039303e-01,-2.000044941666390130e-03,1.506244981227814472e-01,-1.060997664015438380e-01,-9.047512911386534906e-02,-8.033152301885393420e-03,-7.590596196631460568e-02,-9.578852244301161445e-02,9.317213351550102107e-02,1.544628848304389068e-01,-3.671877137496165622e-01,4.922983812011116900e-02,2.047322757610027244e-01,-1.237792691345424023e-01,3.458265066630716866e-03,1.795689962324026334e-01,-1.139558954577436500e-01,1.416140791382171082e-01,-1.360500245565207100e-01,2.558286454947433786e-02,-2.097191053113988124e-01,-2.367568915082965963e-01,2.953091785984899298e-01,5.884723586100071291e-02,-6.905722772177458335e-02,1.261568904820086212e-01,-1.953597183032845797e-01,-2.047435481407344771e-01,-9.156557493945649551e-02,-1.533703805418170640e-01,-4.552898114244985361e-02,-1.100887409612250067e-02,4.731294099924565622e-03,-1.848193413222952719e-01,-9.208240689904145793e-02,9.517975899778952087e-02,-1.180759599012309868e-01,-1.875633052500214060e-02,2.170256052205777886e-01,-1.971651793744827463e-01,1.837359257967646764e-01,2.650381149882241605e-02,5.671319593125734304e-02,3.895648133309015382e-02,-1.183156379685520454e-01,2.743036803992732198e-01,3.500673970203593832e-03,-7.486811587154507119e-02,1.340788253040133271e-01,-3.679894418930407252e-02,-5.318229275342589712e-02,1.222303487990915594e-01,-5.612287996264730960e-02,9.468447330625340275e-02,-1.626549913945199988e-01,-1.298915891498845232e-01,3.069431322842552934e-02,1.896055491950776606e-01,-2.440475663421393104e-02,-1.963308549479070297e-02,6.376896779152041450e-02,-3.262926210006779071e-01,1.713828190562882714e-02,3.532756251676294479e-02,1.033417272832651834e-01,1.340316910564750552e-01,-1.538231999974593034e-02,1.489376181553231371e-01,-2.161891515150345944e-01,-2.338258294557226113e-01,1.466004269783592884e-01,2.945149950822779639e-01,-1.212625131451890992e-01,-1.812705234297323775e-01,-9.815119989778098297e-02,-4.291758424168656827e-02,1.304103795768659646e-01,-2.061051672452379746e-01,-2.635759654413311059e-01,2.756417277212591666e-01,-2.687328877893312429e-01,-2.385026825833624908e-02,-5.605188328894816774e-02,-4.125397714826684048e-02,9.842811416517116552e-02,1.068170767542030442e-01,-9.470786551339160919e-02,2.277658355759309972e-01,6.119277828093327987e-02,2.798795416165990035e-01,-2.703599812806645186e-02,-2.590847151643286272e-01,2.746494028815723576e-01,7.275880981898785738e-02,-1.129979149227832158e-01,-9.133811693118898400e-02,-1.460250842791220860e-01,3.415069501948286845e-02,7.118092127718667061e-02,8.798564058790092623e-03,2.176482493019638031e-02,1.212261906314170412e-01,8.429270312187775449e-02,3.242859414761511960e-02,2.345237844196083055e-01,-1.446088549710337068e-01,7.929276922565497987e-02,-4.498887575247090265e-02,1.101551503483358951e-01,-6.098704371778873590e-02,1.058685087449756645e-01,-2.009657973099646666e-01,8.301612586552720163e-02,-1.012909173382089412e-01,-1.735440044105788227e-01,1.704715554930358312e-02,6.736649477865896962e-03,-1.291070723716573054e-01,4.224268079167547985e-02,1.029865690137904410e-01,-1.096367851936886906e-01,-8.947566677742402330e-02,5.316833464523607056e-03,-1.306549468365399980e-01,2.098730312239870388e-01,9.616974458831473171e-04,1.781331058004523848e-01,-3.481922993667507793e-02,-1.454115684999480740e-01,-3.842745548007842071e-02,4.475649509552737104e-02,-3.436071749539004738e-02,-4.910423528526208781e-02,-8.731581540195632041e-02,-4.805570584640272980e-02,-4.867400598533089262e-02,-7.583360846312492409e-02,-3.178144608921351644e-02,7.402717075442155625e-03,2.982609879061526303e-02,8.876849029536215685e-02,-1.496962356253742632e-01,2.227890917554834482e-01,-8.238635258783577608e-02,-1.466435993253959458e-01,-2.290445389639840235e-01,2.672217542730909168e-01,-1.244573474076572372e-01,1.022148291414770593e-02,-9.334941447646338819e-02,-3.661859967828495765e-02,4.021084710011391117e-03,7.919017046529419623e-03,-1.214339774816680650e-01,1.206794527531288574e-01,-2.806641808545732308e-01,6.298705394408676828e-02,1.124617775431676625e-01,-2.413687778622530811e-02,-7.587384794177631786e-02,-1.980289469478646591e-02,5.083394495852677775e-02,-1.555341728373410559e-01,3.106203401886420412e-02,1.311681874368032519e-01,-3.009310563724143517e-02,-8.522084285044095875e-02,-8.478912767308643961e-02,-1.218849984967599331e-01,1.341000394831054487e-01,-1.343086784845687331e-01,-4.566223776320244010e-02,-1.154792093448747670e-01,-6.072312263786783237e-02,1.518882387611336648e-01,1.252051155804453364e-01,1.519896560463848134e-01,-1.336709141457331773e-01,1.338751131382475146e-01,1.675459507496942502e-01,-6.991372011915186757e-02,-2.487881642495143319e-01,4.428154826935293276e-02,-2.528855829841351044e-01,8.637666628496298848e-03,-2.231057660061475101e-02,1.188345463492869181e-01,-7.753767984731518847e-02,1.837427251961154528e-02,2.988408439461542887e-02,1.436681907975098094e-01,-4.367904888184825918e-02,-6.467724777819927606e-02,-1.210983496207650445e-01,9.775480548959214477e-02,2.288403309882325321e-02,2.380325848363008534e-01,1.415658574065992159e-02,-2.584239698367463145e-02,2.340272843855617513e-02,1.015400727266423386e-01,7.619106123867480651e-02,2.327330418153957803e-01,-7.987627367296956660e-02,1.950505375479162362e-01,-2.202170947629816800e-01,-8.608443294269763069e-02,-9.249195395131282194e-02,1.557232391589613574e-02,-2.458613412239818441e-02,-1.230651732230784168e-01,1.252930157576890302e-01,5.765646908946764349e-03,-2.225334127101896708e-02,1.132907552199614587e-01,-3.887120904241336827e-02,2.301005482162310489e-02,1.380244907587414582e-01,-1.942667348315495479e-01,6.969089308264619920e-02,1.013944303038347705e-01,1.226317838996549003e-02,-1.167588671780611653e-01,-2.403201128568832612e-02,-4.376375636252832768e-01,1.172207337080399814e-02,8.130934949229973174e-02,1.705590254419716567e-01,-6.960620814647044963e-02,6.757676647137123016e-02,-1.443095236705852491e-01,-2.489089944853917213e-02,7.134501033649043311e-02,-1.161315083304840234e-01,3.097667307643995338e-01,3.374618618379177093e-05,-3.327089278266359695e-02,-9.346008180283449374e-02,-1.187179358753088776e-01,-9.402893281789892477e-03,-1.096282408381042961e-01,1.494625784990605277e-01,1.112292776535961369e-02,-1.576429638512323317e-01,9.233071342659882053e-02,-3.147372483156674061e-02,-8.507229621724865520e-02,-7.067664679610119460e-02,8.732384827183892195e-02,2.398178427305841520e-02,8.796539639599709748e-02,-9.576007581817636005e-02,-2.412593844299926182e-03,1.904452977914866674e-01,1.173001853498478741e-02,-8.044981174314302930e-02,1.553413144746601526e-01,-9.908752607092174980e-02,-1.645933192277805324e-01,2.399929762958985524e-02,-1.970945399769108430e-02,-2.414105856426441710e-01,-1.512658420875160337e-01,6.690052399984325326e-03,2.724700191060028809e-01,7.961303470639846669e-02,-9.311854523507134829e-04,-7.872221465100526228e-02,7.821345207719121451e-02,2.717580265115893123e-02,1.232471504594029321e-01,3.456764687079660892e-02,-1.529514306392435463e-01,1.728563436242019913e-01,1.762073231336869217e-02,-1.024337725574485658e-01,-9.754391849109422807e-04,1.308686499558376903e-01,-2.357140905976110590e-01,-6.705077246138146929e-02,6.774984751698076568e-02,4.777051533858645005e-02,-2.445692643490671170e-02,-1.221460366792913588e-01,-1.114801380375677331e-01,-7.753280658741557030e-02,9.454123823995586040e-02,1.224766656404737697e-01,-1.706343562047901719e-01,3.096078152248514792e-01,-4.736567590374585190e-02,6.856896922915578507e-03,1.909126172309504321e-01,-1.045624233198315656e-01,-5.821522093199449355e-02,-1.051334659241195402e-01,-1.077015710154624051e-01,-1.609715366064822240e-01,-1.168416579607300942e-02,2.447349185992234721e-01,-1.760576724933620163e-01,-1.611789227712024930e-01,4.805186572660480326e-02,7.982178113747573356e-03,5.541629332152442355e-02,-3.474969506694891574e-02,-1.690961274248964363e-01,2.803822282624229834e-01,-4.894479899980008764e-02,-5.856898609652272381e-02,5.255963216768022583e-03,2.368866713462480789e-02,5.425723624882217155e-02,-2.780619410705563732e-01,7.752858157284359120e-02,-1.629100397222823515e-01,3.683222761939186629e-02,1.805357703855803297e-02,-6.558695238813583295e-03,8.991887905233986178e-02,-8.676132542307202211e-02,1.137910604883777266e-01,1.070387360851331460e-01,-1.631378204091301631e-01,1.997513379762813068e-01,-1.055817689195180931e-01,-3.960346808630921256e-02,-2.021478362276328822e-01,-6.254380514925772516e-02,1.586379623828882979e-01,1.302228152784158377e-01,5.749684222904449804e-03,-1.757410631614353402e-02,2.494092330274200187e-03,-1.203502674181999854e-02,-2.726250007609054560e-02,7.470599221976004234e-02,4.259724026231082039e-02,-7.529729029709686383e-02,2.225442114527098614e-02,-4.376575151900075067e-02,-2.139066324098738425e-01,1.085850583477970810e-01,-8.332385791444563150e-02,-1.524602463200744884e-01,-3.816676778936611836e-02,1.129083140597876289e-01,-3.546683020365859473e-02,1.220971182016862278e-01,8.102436216530384261e-02,-1.096827117447757294e-01,1.354166819903098729e-01,6.225443643991968035e-02,-1.446341123738081880e-02,-1.131547606949835361e-01,-3.800598568689553813e-01,1.272014601240353260e-01,2.345239438068225102e-02,4.366365077571077169e-02,1.062313750899642750e-01,-7.071750871727056076e-02,-1.616579368858717114e-02,7.566751812508576425e-02,9.170315775933313152e-02,2.085995607201018842e-02,8.403401917759423245e-02,-1.637204405692249676e-02,-1.876383568591822870e-01,-1.369509200008275362e-01,1.280420098208973068e-01,-2.015731224159311719e-02,1.518862216589719205e-01,2.644836625124470375e-01,-2.197757994493299005e-02,8.715597121368079403e-02,1.478897229958638926e-01,-2.209160452178671186e-03,8.128025168845065540e-02,-8.761955055146619653e-02,-2.403632485352191761e-02,-1.835784820395310879e-01,-2.557393606800587582e-01,-6.519420529182395896e-02,9.509217721383722566e-02,4.747806885863126158e-02,-3.232105043020305768e-02,-9.657791915223190582e-02,1.058593202377094977e-01,9.509380605166362077e-02,-5.853637601384009681e-02,-3.739750659778839914e-02,4.639307730059039070e-02,2.423952288764297247e-02,-1.879799128513738316e-01,7.071079881416653112e-02,-6.635860122416115114e-02,-6.366570335846544193e-02,-2.315799302039603935e-01,-2.875969678656786765e-02,4.959800263121361130e-02,1.948964504026854394e-01,1.490326503083553300e-01,2.844939167893356657e-02,-6.646410531240343200e-02,-1.698389529063687453e-01,1.823791191336360251e-01,-8.453307174003643620e-02,1.079059083151590048e-02,-7.173472951658232954e-02,1.014210400856484506e-01,1.653283277237848070e-01,-2.689329573142973384e-02,-1.173934585562838029e-01,-7.808875280364391269e-02,1.161870723464862865e-01,1.229184122543395263e-01,4.508036634853940239e-02,4.531504661632657083e-03,-1.003387583552128870e-02,-2.365939702596281391e-01,-1.707083466443007902e-01,1.007566904069786551e-01,-3.849435830174596784e-02,3.635644278404293050e-02,3.258077300586026404e-02,-2.204604544960421242e-01,-3.881068934767994971e-02,3.083510972062397659e-02,1.458478495918528184e-01,-5.931443619669207745e-02,4.991523385271945390e-02,2.570889087921435223e-02,1.449664816292625114e-01,5.879503630016125193e-02,-6.862894433869859423e-02,-1.950558871933457672e-01,-6.790343450090696731e-02,-4.116149866087270848e-02,9.820073710957222257e-02,-9.894927457549040906e-02,5.093510172889781362e-02,4.362299002623315491e-02,1.778084767770082841e-03,1.172231204715645791e-02,6.037798686534323611e-02,2.191812409794456906e-01,1.377425273020504992e-02,-3.398657805627747219e-02,2.949117014200342002e-02,-5.197008327113661341e-02,-1.497815393600754330e-02,-3.094610936273134438e-02,1.050285869006339912e-02,4.597761534821442897e-02,-4.748580816285519202e-02,-6.688869770113636815e-02,1.043084905424970232e-01,-8.089084826127457273e-02,1.251665220774678122e-02,6.667713339582381771e-03,-1.595336826061266589e-02,-1.187933587526218693e-01,1.012582939512650659e-01,-3.094703021005285049e-02,7.520568395070148515e-02,-7.572187760729354178e-02,-2.272574657066761539e-03,-2.438951864227367761e-02,1.520754073567270881e-01,6.552663282299120429e-02,1.337577629929042056e-01,4.034516236101881592e-02,-7.478272322926193816e-03,-1.587899415567649575e-01,-1.056062019432045807e-01,4.553669958290096353e-02,-9.733470989226844505e-02,-5.405634808800596769e-02,2.192702279384916020e-01,-2.433058977147337654e-01,2.466091925772438964e-01,-1.272841073847857940e-01,-5.986534095537743294e-02,-7.963020378817409206e-02,8.970844870424043993e-02,-8.464449570495335973e-02,-3.522029690720651640e-02,-5.877151876870756464e-02,-1.287329127071771273e-01,1.753501280636083903e-01,-7.818206744910216610e-02,-2.990345262292061213e-01,3.823794620832809965e-02,2.316496266767625878e-01,1.253690906628343038e-01,3.911324903883939275e-02,6.451529984896009484e-02,-3.818212972283896445e-02,-1.596374749652710312e-01,-2.288630241374670637e-01,2.378665256648485604e-01,-1.101887454686222290e-01,1.454231652856355916e-01,4.476657353388013849e-02,8.353934428715847904e-02,7.024625700955600127e-02,-1.503208131659022895e-01,7.911485621872860197e-02,1.029240959609074579e-01,-1.516452658339429993e-01,2.959242677285645051e-03,-4.662725307019177645e-02,5.342352238089598249e-02,2.851545856313342231e-02,2.724030851401028075e-01,-2.334738963513979249e-01,3.283632119122636972e-03,1.171658850154942977e-01,2.537166124230144648e-01,6.448937945593524734e-02,1.366691802376396314e-02,-1.167870010032456829e-02,-3.068058790912419065e-01,-1.166635971942596717e-01,-9.253809117079503377e-02,4.005824309635730440e-02,8.550499675291123314e-02,-4.125314708588134760e-02,-8.024483680682759079e-03,-1.700069643734355429e-01,-1.670487112988506828e-01,2.233940924823670793e-01,-1.738463559253785595e-01,1.321250634114277123e-01,1.019825283861851561e-01,-1.929022471906166603e-01,-9.165716521652533810e-02,2.982874926996514908e-02,3.890695032833557665e-02,1.334194649110417297e-01,9.053039433573417671e-02,-3.213680233181126500e-02,-9.454921639244540099e-02,6.564231914610874075e-02,2.948088675119530343e-03,-1.220137936127992928e-01,-1.441476491569092522e-01,-1.967948557632320794e-01,-8.718583543716673656e-02,9.583247776087100434e-04,1.610400820778213893e-01,-5.346025860762393389e-02,1.021055937379320433e-01,-4.067808367116831914e-02,8.198824492660483632e-02,5.461030376750086734e-02,4.914634998284361789e-02,2.615982529332294693e-02,-1.220835348182122138e-01,-6.026066793569284652e-02,2.402701299962298753e-01,-1.717341604853513948e-01,-9.813693563806091813e-02,1.035937584049795301e-01,3.501905408407446352e-03,3.372757733317022222e-03,1.744726265747144067e-01,-2.142237385108580749e-02,-5.113271758035986547e-02,-7.029763477429751273e-02,4.960871431561308942e-02,7.605991685588053830e-02,-7.951228065153814750e-02,1.392242160367881398e-01,-5.553025997636973354e-02,6.520922639587589664e-03,1.856330741019714958e-01,2.070407287821444120e-01,-1.230873091430398913e-01,-2.294263048047334719e-01,3.747545906792526527e-02,8.556662322399299914e-02,3.467223593725832220e-02,-1.221372911641704917e-05,-2.951663103448642911e-02,1.099267418611110658e-01,4.549205183901217087e-02,1.137980897213607401e-01,-1.491988882268088235e-01,1.889850716169816369e-02,-8.738740323556049017e-02,-5.001175044579420081e-03,-1.163690588897926537e-01,2.550989477062440836e-01,-7.784882242320434464e-03,1.615167174431536568e-01,5.314982326178896432e-02,-4.922785797999951196e-02,3.820686404046658158e-02,8.407953386125177619e-02,2.892406329638719242e-04,-2.287816558606173833e-01,-2.796629474779487312e-01,1.246092574467383418e-02,-2.864356069793286830e-01,-7.549109164058032118e-02,1.017389489195380525e-01,1.439475524726779865e-01,-6.241835566844655681e-03,1.568023666679320138e-01,6.260467403047942359e-02,1.395432595032908285e-02,9.355349445692795474e-02,-5.026821001937287203e-02,2.684363963976788003e-02,9.920469087081740245e-02,-1.274779586416346921e-01,-2.079035357738004963e-01,-1.986414862503241840e-01,2.438427899619014516e-01,3.674101174791311042e-02,6.347328992204137599e-03,-1.323508900993279891e-01,-4.211925240710223672e-02,-4.699642973982898209e-02,2.151752432296812900e-01,-1.186042856300898451e-01,2.699337982344152120e-02,3.217247319401328465e-02,3.513050258309868834e-02,-1.692572405179090245e-01,2.185291666573684344e-01,-4.295311693928316465e-02
1.999690668610073496e-01,1.730258804464624989e-01,-7.812860487607176108e-02,1.107544727175319155e-01,7.657184429267493986e-02,-4.881104233600852549e-02,-1.976326575346964987e-04,-2.911528955606479396e-02,5.932230926174997254e-02,2.879466938906338758e-02,-7.089550591936111257e-02,-7.169364009462719789e-02,-1.686016907470685444e-01,-1.801100929823545860e-01,-2.586346760420402680e-01,-1.033737199235259530e-01,-1.779022374649462668e-01,-8.326068321865898181e-02,-5.104260030588558816e-02,-8.961895622225435343e-02,1.361252579491378789e-03,-1.423834840597434370e-01,-7.191540127286077944e-02,-7.911427054333708409e-02,1.378666647694567482e-01,-5.475555184403402276e-02,5.271738427040262298e-02,2.304347952937624289e-02,7.326115403815125493e-02,1.326829757138628940e-01,1.106662975841975483e-01,1.483016254848520399e-01,1.425824608717968234e-01,3.497508933027904110e-02,3.340021982232299624e-02,-1.471006339564809862e-01,-4.124210388454085940e-02,-7.582400141520062586e-02,5.140314567649240107e-02,-3.061064938145807712e-02,-1.036493090363789227e-01,-5.156566233818382639e-02,-7.846758725020863690e-02,-9.317551148309755060e-02,-1.810791798661648411e-02,-1.635108048001659986e-01,1.547948730487670455e-01,1.600580273597551617e-03,-4.065813171731968989e-02,1.336274414413539668e-01,1.016358101634816657e-01,6.844498437359602949e-02,2.694570556354547453e-02,-1.234961563524071826e-01,-8.996149855240032078e-02,-2.131172759137045514e-02,-4.095178971506274745e-02,1.255487999360149765e-03,9.489997587896381592e-02,1.324232780609435611e-02,1.136590593636058744e-01,1.498874988639892214e-01,-6.686791301220951222e-02,-8.584283897337152691e-02,7.196025889035706502e-02,6.571798151889185480e-02,-1.220408003834515531e-01,-2.198009151300739372e-02,-2.354168833785708070e-02,1.152550566681768140e-01,2.860552274101613168e-02,4.906019686051499296e-02,-7.102836104497123326e-02,4.622549661479014027e-03,-2.288520311698650778e-01,-2.522567910269705171e-01,-8.580069052687144815e-02,6.245726870455770019e-03,-5.416776676785894917e-02,-7.861288895058549109e-03,-2.246381159202280875e-01,-2.304270950841791343e-02,-9.632194355933643148e-02,-1.200075253874478554e-01,1.230949947038896264e-01,1.801388502502999645e-01,6.986277376532135097e-02,-2.330703653547988585e-01,6.557969248821005070e-02,1.004989784170541300e-01,-7.475874211341770881e-03,7.759416233291960285e-02,5.598634168878169337e-02,-6.591690194849186835e-02,-4.763067476429749814e-02,6.940888537670175662e-02,-5.792772173445415174e-02,-1.466364271322188051e-01,6.126379181841701271e-02,-9.220067791139319180e-02,-1.587369609607036658e-03,-6.363812079208253092e-02,-1.495783031407904584e-02,6.502738470879754207e-02,8.580117747316451382e-02,1.451053320271095126e-01,-8.452156349247041955e-02,7.408833872587394787e-03,-1.897024320123547048e-01,-2.101092734173087839e-01,-5.426143962837259860e-02,3.077014036630443261e-02,-7.824916281077898272e-02,3.176459632919537146e-02,-3.066865358427184329e-02,6.166790443453395998e-02,-1.731838625459114489e-03,1.116409128784604521e-01,-3.861452567680223602e-03,-9.985721083074017290e-02,-2.778356034742512914e-02,-1.848944808562283937e-01,-7.177710277749704826e-02,-3.311524884795580270e-03,-1.098803869723979920e-01,9.766377895225064609e-02,4.061428545459710993e-02,5.390267973584406125e-02,-2.001543234205710453e-01,-1.856095081095959776e-01,-2.357111366170783207e-03,-7.312253477492924869e-02,2.456756903438220840e-01,1.807362019451252966e-02,6.317265235412927726e-02,4.316719725161510812e-02,-9.514049962045711961e-02,3.003796906235811637e-02,-1.013081101255630667e-02,8.448870658709695114e-03,-8.214473706628433458e-02,9.756792463099572821e-03,2.281172322974703848e-01,-2.541516640376728642e-02,-4.296420341638496065e-02,-5.336508867309530668e-02,5.843097382767103998e-02,1.460218411587922427e-01,6.781384033208603945e-03,1.336605083412299999e-01,-1.573112891689765203e-02,1.645241444237932615e-02,1.357749962208846251e-01,3.196433963137879086e-02,-1.022371560354690123e-01,-1.003291021915214687e-01,7.496686727499357605e-02,-2.215513138954550154e-02,-6.098718524829904730e-03,-2.490049119849169212e-02,1.352331807442782585e-01,-1.724647896718667361e-03,-1.390614042152663599e-01,6.324085610130458779e-02,-1.060948015074151263e-01,-1.550170478624058878e-01,-5.997386787694247712e-02,1.676587225219551280e-01,-1.652620945139859909e-02,5.301220978558396357e-02,1.317318773346679572e-01,1.217957695292396503e-01,2.097537658004589023e-02,-2.408581491453476442e-02,1.998883853082722428e-02,-1.140113971495327894e-01,1.287725017023044760e-02,4.410941891356601197e-03,-5.400688600710645826e-02,-1.313900114544769293e-01,-7.754539215650335660e-02,-6.537692564664066008e-02,-2.100602164158335006e-01,1.192831700966068276e-03,-2.106572342864668768e-01,2.495021423720855669e-02,2.122448094427246135e-01,-2.627357043425548877e-02,-5.798396822750517821e-03,-1.627750623686552434e-01,-9.362270119437254845e-02,-1.689979263541262489e-01,-4.388957117228053928e-02,-3.541190768814261869e-02,1.509963306886815682e-01,1.821519087762146771e-02,3.905177929293801586e-02,-1.277936077492286548e-01,-4.491588587177497427e-02,1.710226567939854281e-02,-1.094997112751284751e-01,5.384217463738194542e-02,1.993297704387553271e-02,2.137049416247249756e-02,-3.004657209528571737e-02,-2.746189899588935557e-02,9.282028568701916615e-02,2.382809866448154512e-02,1.739912645544150482e-02,-1.207074831936283399e-02,1.003672518841020045e-01,2.332169684471951943e-02,6.802692670487842097e-02,-9.028085651087669472e-02,1.819522770035165715e-01,9.573392718970696880e-02,8.390169468293084964e-02,-2.026192935632872283e-01,1.409500215569347015e-01,2.203672012432245086e-02,-1.257436137974735635e-01,1.408680449807159230e-01,7.625423771596706590e-02,-9.175037358600035553e-03,-2.253174111282744141e-01,-6.192646531552215006e-02,-3.596263339582017604e-02,-3.721017205859367127e-02,-1.074944004545462795e-01,1.313458371736168084e-01,-1.021340977014707496e-01,-1.690311486074469460e-02,-4.808549216389701453e-02,1.020622159175298416e-01,-1.207526434764017997e-01,1.405794521371162009e-02,9.985376906663623320e-02,-9.898338975940157436e-02,-7.112326340651120571e-02,-2.115592743848692114e-01,-4.683358667082238025e-02,-2.958395546785597130e-02,-1.447602474082655410e-01,-1.815008730318623531e-02,9.570488598626225585e-02,1.812142590022125521e-02,2.427599733315299879e-02,8.186888444132967013e-02,-6.053298374708260265e-02,1.072138608296052675e-01,8.337299565071332186e-02,3.486370179550724036e-02,-1.450959904238459108e-01,-7.306714600942976201e-02,1.868744958638893783e-01,-2.673152066156857520e-01,-1.821721311321888859e-02,4.594821114580283083e-02,8.501888604584506570e-02,6.478327521579407833e-02,8.019976693736075024e-02,3.936071622301418049e-02,1.160104445422748265e-01,-1.464212596923800680e-01,4.789411994528525174e-02,-4.555940947753833736e-02,-2.087541040451913466e-01,8.751069807407552137e-02,-1.186881735481589706e-01,-1.876225963573942002e-01,1.782085570449313261e-01,4.164656028579838409e-02,3.160099096747602809e-01,-1.057057396769252033e-01,9.329209742059341171e-02,-1.030274229677698994e-01,1.122976288672842271e-01,1.116668397569806626e-01,2.130733596952538722e-02,2.045107025149150992e-03,1.224919999329531217e-01,-4.405538454311164198e-02,-5.573208590933853568e-02,-1.730574629166999889e-01,-1.528552472004202079e-01,1.496275304296711406e-01,8.208726200725335875e-02,-1.272904098596983058e-02,2.621531163293623345e-01,-6.989766234743333140e-02,-4.783324521441778554e-02,-6.833298044250868397e-02,-2.955920160308641575e-01,6.663857537978989942e-02,1.177004288065136572e-01,-1.654608897657204869e-01,-4.275741149529321827e-02,4.084590801198939580e-03,-1.151347349302367373e-02,4.960549548560655442e-02,6.372383018666050170e-03,-1.572642031159302567e-01,-5.643263235526074784e-02,1.760656171931685998e-01,-2.028848661691984301e-02,-9.518778452211684726e-02,-7.344145959910564070e-02,-1.151540836400254397e-01,3.628564447793858339e-02,-1.061270339370897764e-01,-8.091963938119783872e-02,-3.135944966999237860e-02,-4.954075747709862920e-02,-2.473021292904264978e-02,-6.570919223939808429e-02,3.543997702407930550e-02,-2.364886489617997745e-01,-1.070816335431995503e-01,6.285213912112896928e-02,-7.433753293832390252e-02,-3.873597141026630108e-02,-1.338661706229585802e-01,6.364732288263541538e-02,1.917558886021863973e-02,-1.444303045346776448e-01,8.548953685339777397e-02,-2.522574176004800384e-01,-4.979428805806607183e-02,-5.816865441680085791e-02,1.118540376878304210e-01,-3.360796941226004142e-01,-1.279122939651612390e-01,-9.944756123296183414e-02,4.592837254179615858e-02,-1.695110294538343387e-01,1.183621816646432956e-01,-5.157189288015595618e-02,-1.009915189863960228e-01,4.095220158152435008e-02,9.811495620905630322e-02,5.180490920662583765e-02,-4.858278593258036349e-02,6.692703065616900648e-02,-1.891674833166934189e-02,-1.065355649585123521e-01,2.537294602932945731e-01,-3.597084611204459659e-02,5.526350056503182007e-02,-1.227799602617233310e-01,-6.855495325813754093e-04,4.213442399519851111e-02,1.435827504691411516e-02,2.210652123852524520e-01,1.141217040984543463e-02,1.363817233037167842e-02,1.079880990981202382e-01,6.411385216219545047e-02,-1.414381638626783788e-01,4.841409375094751777e-02,-2.094264332966145892e-01,-4.136002647251080244e-02,-1.935123806312100125e-02,-5.399222816823312510e-02,-1.893776495672104820e-01,1.335842316251559803e-01,-1.284579783080529447e-01,-1.314696619752183659e-01,3.381236215402394496e-02,1.324373893906042321e-01,1.531949669974946859e-01,-5.601381940085159439e-02,-1.590913824596762449e-02,8.107369887688009591e-03,-8.539947128030855872e-03,6.253452084174149217e-02,-1.850675159305635864e-01,-9.690861160753383441e-02,-6.853871503805197829e-02,-1.820713402326601393e-02,3.065804821051820728e-02,6.741249771401103263e-02,9.595209467767429334e-02,7.464752850307576626e-02,1.489559132281714771e-02,1.072092868762963835e-02,-4.306237266311441214e-02,-6.365358660151876347e-02,-1.243132970839461171e-01,4.516377494117540525e-02,6.347926689926119970e-03,-1.145916849075260258e-01,-1.598461049758496122e-01,2.999094895704079722e-02,-6.571213577887247137e-02,8.859169038466119250e-02,5.070427033899627123e-02,-2.842241724069016762e-02,-8.058418392997512836e-02,-6.220679334229683999e-02,1.025611211925528954e-01,-6.094396176763960948e-02,6.861238230087851608e-02,-1.395211580379033256e-01,2.455888450955502345e-01,-3.678608754414358639e-02,-5.895006001212033109e-02,-3.146343746531188312e-02,1.418668415041560715e-01,-9.437067227151751947e-02,-9.654569176426341937e-02,3.203522280895154672e-03,3.781121217382943378e-03,-7.670257878800446072e-02,-8.973685021303456910e-02,-7.278131358461104039e-02,-1.991558979222877168e-01,-5.047138765440617458e-02,-5.013945694827814936e-02,-1.597760257320380850e-01,-3.277348834689230994e-02,-1.495626243433224589e-01,-6.386586502547375588e-02,2.317903679369021086e-01,6.252944501956803069e-02,-1.837444970756106910e-01,9.150365164167773013e-02,1.033106174987269421e-01,9.605244655686251409e-02,-1.007962673805286036e-01,-1.410650932820124437e-01,4.092679958880407476e-03,-2.603305587770277096e-02,-4.148346387560664095e-02,-1.135510076226687870e-01,-7.985663129029541007e-02,1.081961008971120686e-01,7.422598355747311860e-02,-1.388747567015883311e-01,2.299906797710576933e-01,-1.023034796047056494e-01,-3.903510172263080502e-02,2.025870855591321851e-01,1.530036774920159326e-01,1.188593729471217886e-01,-9.969666024833390150e-02,6.142318254652645582e-02,9.941831807226997331e-02,5.408274978256122356e-02,3.312822469287179938e-02,4.031712353228711354e-02,-1.175883935361418109e-01,6.292464157159638471e-02,-5.921246471524133081e-02,-2.696556493231383467e-02,-3.706090723029420442e-02,-6.057608559254779035e-02,5.699801005501548001e-02,1.102588751666845335e-01,2.335369007736576297e-02,-4.416471839775115704e-03,1.069668140448368776e-01,1.137757430266842507e-01,-4.795620559575242137e-02,3.934460828368691043e-02,-1.069997175901183928e-01,1.316382154986924791e-01,9.010675549239899329e-02,1.693674737796621033e-01,1.696339702780683689e-01,-7.168123620322075507e-02,8.847566952595242729e-02,3.336836196490022832e-02,5.701174587298352137e-02,-3.709437645065560840e-02,4.521738664199681512e-02,3.353604628296330548e-01,1.151725647104294703e-01,3.421343762605533190e-02,-5.976713937798405762e-02,-4.319641155070719218e-02,7.624947025839634573e-02,-4.116558911796197595e-02,-6.566480654433204389e-02,-4.653047107501995239e-02,-9.601682845923675824e-02,1.215316666312961091e-01,1.259010289450045450e-01,1.072790966727900086e-01,1.039646926233613877e-01,2.666086817314061719e-02,-2.127212155144098116e-02,7.229235848981441226e-02,-7.501655695469444662e-02,1.149850638943759051e-01,1.559453340754356487e-01,-1.164892367045770039e-01,-8.244361820813705943e-02,7.209730544142867181e-03,-1.958086272505189518e-01,-3.427587453396030437e-02,1.386426492293358903e-01,-1.796712393687854847e-01,-3.806848178032296026e-02,-4.651980491808116458e-02,8.892065566184725878e-02,-1.168730880236462655e-01,-5.962504818737801582e-02,1.431701629793119546e-01,-1.424513751670776207e-01,1.605557243487842900e-02,6.226145268434346569e-03,-2.161724510330220728e-02,-3.322122309414676788e-02,1.503034119673081204e-01,1.183359764600800945e-01,7.812568680007780930e-02,-8.077454128110150844e-02,-9.450836460925493565e-02,-1.747227798170286617e-01,1.073786462365072802e-01,-6.784446218130291140e-02,-9.585420870268623883e-02,1.859111988634613022e-01,6.774243230468379728e-03,1.847347453641789983e-04,-1.682510134321301143e-01,3.794057436265785288e-02,8.438848130239329226e-02,-7.751516825177273695e-03,6.215815181145001311e-02,-1.134880489043046392e-01,-2.810096432337242378e-01,-1.177734661785900805e-02,9.388687254396355097e-02,-1.151145981811593222e-01,-4.360800792487118382e-02,-7.676586794870610131e-02,-6.209076168455529565e-02,1.002940898513859924e-02,-1.390895646995937707e-02,-2.373173880980240513e-01,1.825472920922055486e-03,1.258754983157891472e-01,8.864354823611841905e-02,-9.080793734222381008e-02,-2.115046081919164100e-01,3.842867175514930178e-02,-1.063348666450114610e-02,-1.071197975407954806e-01,2.487247426581792320e-01,1.843184467508435231e-01,-1.359088707132197760e-01,-2.780129252268570550e-02,2.918077708208699494e-02,-1.206115858062867252e-01,8.408026035233151507e-02,3.805947054311364930e-03,1.004082053112818063e-01,1.237877634565370810e-01,1.050965348351443618e-01,7.548429838771364420e-02,-1.456777844468003513e-01,-1.052461543059668436e-02,-5.936264971992966100e-02,4.261194489784458916e-03,5.995121367615274810e-02,-4.742892605743065371e-02,7.705749159814379023e-02,3.129230893352519249e-02,2.954885687461605848e-03,2.100070706734591397e-02,1.111531318039843397e-01,-1.481731285293746980e-01,1.800255835640751645e-02,-1.468004306479725463e-01,2.511257582802006727e-02,-8.913214967867799654e-02,1.828626166249247564e-02,-2.351120413664553599e-02,-1.081559491833447018e-01,5.672688684016613525e-02,8.715941867350374128e-02,8.826788893360426602e-02,-2.290286554768294902e-02,3.002689994086027436e-02,1.054805897029031936e-02,-5.093957093637901945e-02,-1.617095125703559289e-01,-6.344506947627637228e-02,1.330417789420855756e-01,1.353467039013783735e-01,9.287179799075395703e-02,6.151890811548910154e-02,-1.654698661249998093e-02,1.532181355837211045e-01,-1.073810641278029054e-01,-7.202063082341136901e-02,-6.979278640607089468e-02,-3.552719887338973148e-02,2.837550493294482834e-03,1.037989788973258110e-01,1.023515094885548704e-01,2.456416233556268924e-02,-1.562060815929732227e-01,3.349563650328912789e-02,4.946797404088687511e-02,-7.784357084222082168e-02,3.438236424305396444e-02,1.526273210563178218e-02,1.446347237583961443e-01,1.046923510884590902e-01,6.636812852943407837e-02,2.785514974031422231e-02,3.248503769358468407e-02,-3.198311617016769137e-02,-3.521379704316329740e-02,1.588677736808138397e-01,1.026535203079618208e-01,-1.892299561969312816e-02,5.040828201096136940e-02,-1.533816521957687140e-02,-3.099837625896162407e-04,-5.469984897914692556e-02,6.519914138070315168e-02,1.304054995074322987e-01,1.562284079832448880e-01,1.594199583533225661e-01,6.520103609054961336e-02,5.083967050785165309e-02,-1.531514008127047299e-01,-9.841613547728578215e-02,1.274046409739837404e-02,7.065119047853785084e-03,-1.778223325192507254e-03,8.286514121542609690e-02,-8.630344927496735874e-02,7.723505970472777094e-04,3.570291939725689367e-03,1.516180893797393070e-01,-9.881058947024212724e-02,1.131354974232957611e-01,-2.227480547149583989e-01,1.011752270438838197e-01,-2.215659597485600818e-01,1.373387418319504949e-02,5.052497397095678799e-03,-1.546026075814400658e-01,6.313811279559999878e-02,2.696705430666409553e-01,7.653785873374874260e-02,-2.451481993058554076e-01,1.208120119502212875e-01,4.935177486540098801e-02,-1.488285533268363103e-02,7.386442886361921367e-03,-2.055040006174346789e-02,6.451877138298867109e-02,1.165403423883436540e-01,3.950784913394955744e-03,-2.016535779598994660e-01,-2.037152775426487317e-03,9.433584919485837883e-02,-9.900217634399743893e-03,-1.279164568700819071e-02,-1.046306831228210887e-01,1.566972403926836233e-01,2.079035997847145101e-02,-4.884502557487968577e-02,-2.348196123289902904e-02,-5.112860852883194251e-02,5.673858540257381566e-02,1.187666616782153683e-01,-4.245769147847366920e-02,2.179836946494461136e-01,5.144349794808456000e-02,5.149989444083857837e-02,7.430227174355941155e-02,-3.318808858904265247e-02,1.483456110691827590e-02,-1.852189006400433158e-01,7.964885337708815793e-02,-1.404326051816325860e-01,-3.786190788318544165e-02,-7.940287047334515513e-02,2.817164554751528938e-01,-1.213472519656425552e-01,-7.267531399198734476e-02,-8.790699760047426814e-03,1.285779527391872623e-02,5.835316282688463030e-02,5.423030912304149798e-02,-6.051681705306566350e-03,1.078978020062030252e-01,-8.599199122375489335e-02,6.128695788849591874e-02,3.746821755285589806e-02,1.831228568363746367e-01,4.409333830011130662e-02,6.709057240009352885e-02,-4.177726335899600851e-02,-1.108772146409578996e-01,1.607793421357818220e-01,2.330763699613657147e-01,-1.420378378466524705e-02,-2.142166688486931703e-01,-6.668492523088376256e-02,-1.131041534718738584e-01,-8.710838479149773939e-03,-4.072688416437819647e-03,1.970989582719673283e-02,1.652464234100404772e-01,1.019302364069684108e-01,1.131636981603473258e-01,7.013919854570282997e-02,-6.044638385111378298e-03,-2.725977982411242895e-02,2.991912228754067815e-02,-3.899517800992813310e-02,1.738879429450587155e-01,2.037172653578042114e-01,6.172442876645722887e-02,7.431218792696336894e-02,5.627319114550488610e-02,-2.559548860583630292e-01,-7.978064430299103282e-02,4.377516710549023138e-02,-1.310803477120577876e-01,-2.392225552077057449e-01,5.678720123234881623e-02,5.194488830205312713e-02,-1.291840990351657004e-01,3.611431895892602828e-02,-1.346532303521262852e-01,-2.799670742915927324e-02,-8.896418290806529239e-02,-5.495398255165762080e-02,6.140740766681795915e-02,-3.750171006871594326e-02,-7.663484311438362173e-02,-1.204069434120972337e-01,-2.542808885520086992e-02,1.728048396689599864e-01,-1.276549475547591461e-01,3.186050262442974290e-02,-1.569913199509898050e-02,-1.073491876096253073e-01,-6.521760740437254622e-02,-7.397000652799623488e-02,1.765111776420471568e-01,9.730054204886373626e-03,-6.458255955844616203e-02,-8.963732059400120189e-02,7.064837983708482927e-02,2.040178181626198795e-01,1.884500387443205360e-01,2.315243023075319595e-02,3.159386980348122265e-02,-1.488607757713013013e-01,-3.386280774227834467e-02,-6.394500508083400536e-02,-2.312995666952862850e-01,1.085942044823096087e-02,7.606501505111495920e-02,-9.251369158299571627e-02,1.428307626780950246e-01,-7.879097122998912628e-02,2.395545796315234899e-02,-1.997919808072826653e-01,6.767359873755107724e-02,-2.102033859665221049e-01,7.567140195761645760e-02,-1.190852258911976325e-01,-3.697754573718758930e-02,5.922981282548467341e-02,-8.488111348768911935e-02,-1.429945791615249151e-01,6.015816144073948823e-02,-6.614815742085733419e-02,-1.737842308782577838e-02,1.377666558278204390e-01,1.327639454925654272e-01,-1.170976602876442341e-01,1.166947763636128066e-03,2.880733437518989692e-02,-1.821824464716316205e-01,-1.481611379899662184e-01,3.429300015445801986e-02,9.228120716695242809e-02,1.530841266277093160e-01,-7.699545161371379454e-02,-1.425600700234047613e-01,-2.316005638083330487e-01,-1.311768283739497276e-01,9.939361976374849750e-02,-9.993972849052867868e-02,2.254226306705808813e-02,2.662418840338155457e-01,-3.389217292710433593e-02,-8.087068758267690338e-02,4.260117264884499821e-02,7.170720069276448339e-02,2.265201670048788696e-02,-1.425945477696367591e-01,-3.314858199598391675e-02,-9.627497890920411194e-02,-1.631230675855321888e-02,8.578586954191969038e-02,9.840610812554462239e-02,1.171229813589654833e-01,8.410384849081975478e-02,1.853250092709733954e-01,1.666356421471754112e-01,2.094698588484898982e-01,1.341140823699072948e-01,1.220848162498781031e-01,-5.916075341165671908e-03,-7.045944659528169396e-02,1.107703148054729470e-01,-1.124695149384199455e-01,-1.551176094006689876e-02,7.313711625190688626e-02,-1.525008612163147870e-02,6.111342686128706791e-02,8.878824951667507737e-02,-1.598501074457477911e-01,-3.927474977504086251e-02,-1.343435001364593484e-01,-2.377548350712688219e-02,7.044239813826802532e-02,7.942642329091698095e-03,1.176889404667375016e-01,-1.121995612420331190e-01,3.692422410692841606e-02,-1.778240445278415072e-01,-7.253049455907800702e-02,2.013448346247486143e-01,-5.681852282356547601e-02,-1.286121644319487833e-01,1.890074197357941577e-01,7.128913160631211721e-02,-5.382850752923495907e-02,8.193426344101062408e-02,8.240059254909293252e-02,-1.451734762648915211e-02,-8.027548772073977990e-02,6.244917911384451070e-02,6.017736416575536484e-02,-3.962069682511670798e-02,5.770947709259111047e-02,-1.321494885306809808e-01,-1.124787184878383028e-01,3.832754139719896092e-02,-2.264272301223468897e-02,-3.681270589817220440e-02,-9.998570388559113731e-03,1.372562681440278043e-01,-2.627583863866919112e-01,-1.689807815478250319e-02,2.878775844035397213e-03,1.951856470694712797e-02,6.916514237163051693e-02,-2.093416405500735378e-01,-6.441586894365125548e-02,-4.008522706337004117e-03,6.612324479267039923e-02,-4.165109805387234854e-02,3.935580515524306211e-02,-5.811938311567654836e-02,1.544082783842721796e-01,2.507381486437535445e-01,-4.892992796878337103e-02,2.545665888834559576e-01,-9.561488267124007567e-02,3.745820113513498306e-02,-1.052008755411087959e-01,-1.029685878431493284e-01,-2.949069696787132155e-02,-2.800903453376901719e-02,1.033658033596004389e-01,2.802314647560433247e-02,1.138276157393736110e-01,-6.507743634359008933e-02,-5.716469103276533570e-02,-4.683623352541244067e-03,1.077843366177676510e-01,1.126261484456198003e-01,-1.755448031467591319e-01,5.007763763055594897e-02,-4.100300835621428774e-02,-4.236416695926203957e-02,-4.242256600035776426e-02,5.967009869724393401e-02,-9.039225649828741549e-02,1.673034406779181360e-01,-3.720294008207492009e-02,1.088239768150777165e-01,-1.189432334489310961e-01,-4.397693566290628020e-02,2.472630050450724815e-01,-5.645191020586526331e-02
1.645642549852439074e-01,2.938222269174645823e-02,2.951963046515587719e-02,-1.941087218802198602e-02,2.454732477816725864e-02,7.797117485877734511e-02,6.076920949705608144e-02,-8.562949156065943757e-02,2.689013454979792550e-02,-4.541813867200963917e-02,-1.588801453675931508e-01,-1.406759634526968672e-01,-1.679463264513490484e-01,-1.712814958351138173e-01,-1.657837330931929698e-01,-1.664520640753880953e-01,-1.507880400259875853e-01,-1.307167139737480110e-01,-2.187460368192475357e-01,-8.928101157752751926e-02,-1.304171553787741578e-01,-9.433425461634613318e-02,-9.465037066152674761e-02,-3.451963899931208279e-02,1.704033073473756876e-01,-4.393179860640365753e-02,-8.353119990131639000e-03,-1.013435779867607328e-01,3.488936844827622563e-02,7.182317764855532249e-02,1.746378385349278139e-01,6.677740054183445295e-02,1.446213379763463744e-02,-5.810466193408340974e-02,2.192414288433576844e-02,-8.142887056543579583e-02,-9.044908641952488504e-02,-3.960736960959028441e-02,4.055477969308500519e-02,-1.583591955312227406e-02,-5.418192846099553761e-02,-1.172768843938749306e-01,-2.073693596231879488e-01,-1.267806223207211536e-01,2.562345492703908129e-02,-1.262452387851180635e-01,3.475073597283055010e-03,-1.098112850082683806e-01,-5.135994960100229850e-02,-2.419175161503745591e-02,-5.692474445407232769e-02,1.240495042442226470e-01,1.903531502920489601e-02,2.391778676477688409e-02,-1.245677875928180300e-01,-7.975575501168948728e-03,-4.692442913677297850e-02,1.166413743009795390e-01,1.055069034567175934e-01,1.992324051982255484e-01,2.340825306573986464e-01,3.834797542558507355e-02,9.607946852711919672e-02,-1.955572974042107254e-02,5.408967825187522421e-02,1.401982056182998482e-01,-1.064479218717096221e-01,-1.352195734369939228e-01,-1.299662171848261008e-02,7.445793071206489519e-03,-6.435049028524064685e-02,3.690905870140909900e-02,-3.136363224149481266e-02,6.351269640583206977e-02,-1.817304226062596909e-02,-5.177711267942398943e-02,1.228288028368061668e-02,1.214963720787348850e-01,-8.840452643405821709e-02,-1.468549185803738610e-01,-9.198398307810232155e-02,-1.984730664790338925e-02,-8.098777501352981412e-04,-1.917033146583074429e-02,1.015257491462078221e-01,1.574867203974232230e-02,7.808347599777133718e-02,8.063562569943197311e-02,1.260431690600309074e-01,2.842108997910125501e-01,9.624149755925186234e-02,8.862236996923225640e-02,-8.798136648568727347e-02,-6.835960438060159627e-02,-5.319852892845478715e-02,-1.639152355097680258e-01,-5.456837879995234120e-02,-9.159902980471573697e-02,8.703469264530855343e-02,7.396540179268303039e-02,-7.216448718235289606e-02,-1.876456662327568581e-01,1.454903445201772422e-02,4.736143797210627671e-02,-2.600591929151243979e-03,7.166559945378897512e-02,-1.613971434581926989e-01,6.588823902458708359e-02,1.118823440244891554e-01,-5.115745718215169296e-02,-8.853252174437003727e-04,-2.161622241887152171e-02,-9.344908068553672842e-02,-7.847072874783412449e-03,7.527932076904668424e-02,-1.399729021511218405e-02,8.779425616039103486e-02,5.065926243513825533e-02,1.260885222541962419e-02,5.936519152370768604e-02,1.919070274831051748e-01,-2.610211159111477247e-02,-4.795285020993739211e-02,1.343353653809865045e-01,-1.727798893334538816e-02,1.270793262728387440e-01,1.892121503873322452e-01,1.367552326586302103e-01,1.291503349433921477e-01,1.207127952108756341e-01,1.130544625708674311e-01,-2.437442674485314556e-02,4.426793211757169832e-02,3.915798352633272778e-02,8.312804924010346042e-02,1.571503508049279518e-01,7.783089472789462074e-03,4.758642799567563975e-02,9.944786067521353690e-02,1.504335088267638731e-01,-2.338764279162005438e-02,-8.593422051065664757e-02,-8.214618236123333306e-02,9.202126900939280874e-02,1.481879330030429209e-01,1.373417799202893974e-01,3.189577985051120917e-02,6.685624890012198396e-02,-1.267052287236881784e-02,3.652050915292976568e-02,-4.475559773340095221e-02,1.853326401197262219e-01,1.716099679947966361e-01,-3.368576454634106265e-03,4.384401490448465444e-02,-6.132019556974614705e-02,1.422241468324545732e-01,3.757039085765971620e-02,-7.682496829798339533e-02,9.638820851725565797e-02,3.958413801957003791e-02,-3.752132366275818393e-02,2.495268944803777714e-02,9.705116948847564498e-03,-6.577615946002304814e-02,5.568142433298486904e-02,3.286623481941353120e-02,-5.318305775547305103e-02,-3.479821911516346039e-05,1.013131958867769383e-01,1.158890240254220744e-01,1.508587614896451656e-01,5.594419339584239675e-02,-1.739852864335127425e-01,-7.939225267197727587e-02,1.435499201560646865e-01,2.164962936933721022e-02,6.354575220742923747e-02,1.061126545812445809e-01,-7.016846881166048655e-02,6.683544931535187472e-02,-2.335405522287925528e-02,5.990232745991642960e-02,2.700503112439447961e-02,1.448785307026167757e-01,5.489454955958308208e-02,8.311776179000163189e-02,1.423878522472384334e-01,1.155293474627506062e-01,-1.189044468999534143e-01,-1.573170492717503380e-02,5.134597867123992521e-02,1.745881885177444914e-01,1.575135180379063082e-01,6.694777399755738601e-02,9.250416703498369475e-02,3.766466429207956240e-02,-9.719024903764514334e-02,1.207925037127733150e-02,8.521645965219232233e-03,-6.194602089316733617e-02,1.945234641087149052e-01,-2.101491209117594891e-02,-1.503016096514898925e-01,-4.245525756871001977e-02,-3.670889007653325292e-02,4.898251837353193722e-02,1.626110451613459185e-01,2.211845318330021293e-01,1.896792720213876238e-01,1.202689803502898502e-01,-1.120901666484813430e-01,-2.262531844306671369e-01,1.246449469079248182e-02,-1.361554509098477361e-01,-5.760987078683767887e-02,7.063038407637040050e-02,-2.231417224776186536e-01,5.460016910109073002e-02,-5.804189781232064332e-02,-1.643480565233434651e-02,-5.179622315755891965e-02,-3.149856341164113810e-02,8.906661836105503327e-02,-1.737032599333164506e-02,-1.380566358609455757e-02,5.934337253103638340e-03,-1.303481816984360941e-01,-1.840161437198940819e-01,-6.447784615544671638e-02,-3.235180408103040944e-02,-5.227242083626037344e-02,1.512222108621310845e-01,-3.658282614501041224e-02,1.509846179596643564e-02,-1.494072856073639169e-02,-5.278050230196563997e-02,3.246417457257419481e-02,6.163829036519549720e-02,1.357231852179452414e-01,7.290836620047198846e-02,1.716378140118157702e-01,-3.350846173281828155e-02,8.224973810722088774e-02,-2.174925418364356822e-02,-6.561837202933341884e-02,1.194647920218139814e-01,-1.522810494445055729e-01,-1.232629083926920499e-01,8.101492412974271862e-02,1.455811849008958603e-01,-2.020735072455673020e-01,-1.919903205089206616e-02,3.974967411398892814e-02,-1.154070877618404017e-01,-1.442648366287041517e-01,1.375820723672781243e-02,2.822309751567797509e-02,6.782758923269910367e-02,-3.472782641931820846e-03,2.383652564864350842e-01,-1.055219288809302637e-02,1.225761151045097752e-01,-5.895222377798156783e-04,8.925107716392623181e-02,1.250823967062263675e-01,-1.410231663867084900e-02,-3.349967316657785632e-02,1.144362160676784257e-01,2.766760827003507672e-01,-3.021235447272368341e-02,2.607278605071727817e-02,1.284390878629311505e-01,1.418299254693244082e-01,1.786795757954930466e-02,-1.879780695267167789e-03,1.139886155960801728e-01,-7.783231453370396610e-03,-1.015288397689683986e-01,-4.724904475338805032e-02,1.751502292070994948e-01,6.608492866711344893e-02,1.046450433953842046e-01,-1.988253723596881961e-02,-2.504699464153986033e-01,-1.210710573282852351e-02,-5.358648164025822669e-02,3.816178420292906659e-02,1.891941598874412600e-01,-5.975958593756088011e-02,3.426691643425259191e-03,2.424621875098547166e-02,4.929629720536309045e-02,-6.063465877228993439e-02,-4.147889174482762009e-02,-1.149841018886440108e-01,-6.561011343467423179e-03,-9.841624788087599551e-02,2.173038340146776770e-02,-1.048909652426285172e-01,1.290208459773789229e-01,1.459660744214443806e-01,-1.682477224613736777e-01,8.708019723597612560e-02,1.058319914517355381e-01,-6.161377155914926629e-02,1.010110924260952669e-01,6.316087367352268833e-02,1.174794084591503363e-01,-1.461008666342151208e-01,-6.090753271590337858e-02,-7.521169608826626385e-02,-1.471381534690735515e-01,-2.279440679570614303e-02,1.348366879256734409e-03,-1.093821911999846991e-01,4.139835344787275162e-02,1.554167176779432114e-01,-3.793592829203096262e-02,1.311023615842823731e-01,-2.244321392002125021e-02,-8.315542547185926503e-02,-1.430196060444302031e-01,5.048389168498407242e-02,-9.947909770705659627e-02,2.626213150457041429e-02,1.482617771639781895e-02,1.602140789001548285e-03,5.310976208920746566e-02,9.573578896234136507e-03,-2.600788185898563268e-02,2.119380506849707635e-01,-6.358913350101803863e-02,-3.549545152164566841e-02,8.032485475149725440e-02,1.766082099316718945e-01,1.452625662977312104e-01,5.787123706105359866e-02,5.001150426267879368e-02,1.706503473505824875e-01,1.210598633043461769e-01,-1.244888078793074046e-02,-7.988586588033166208e-03,1.132629615598254452e-01,-9.585624397664385676e-02,2.121262304305598922e-02,-2.142568605001859625e-02,1.299702706907505945e-01,-1.129680454097027435e-02,-1.970353571534023962e-02,7.834934906576852820e-02,1.440838706634327560e-01,-3.643128232790565635e-02,1.558404413986751724e-01,2.481869803735300799e-03,2.004566843208001881e-01,-1.200504642967057389e-01,-9.442117138875706639e-02,1.128882713453071840e-01,-1.025509978662598846e-02,-8.002864231528195038e-02,2.138051830245436269e-01,5.033204478061426707e-02,5.502847463350657442e-02,-6.848190155920519384e-02,-5.329618914627070464e-02,1.119064001971695546e-02,-6.890812802389620351e-02,-6.373379620577106219e-02,-2.097156405380228017e-01,-1.162547035985385946e-01,-1.774800524499656543e-02,-4.202524590136872545e-02,-7.636188329681101172e-02,6.699529802191110661e-02,1.000936954943651563e-01,-1.915886585442067302e-01,-1.377522681685233730e-01,-6.519525473959085493e-02,-3.884009430317961892e-02,-9.365857338984906466e-02,2.209123702492663335e-02,1.017891155307134449e-02,9.660675025305394403e-02,3.913876181595295906e-02,9.536063307472038286e-02,-1.163971854839887521e-01,7.992126267333710121e-02,1.132606297255229350e-01,2.200229105393856632e-01,-8.307751485159260707e-02,5.598395906461593741e-02,-1.168981092913594644e-01,-5.127280975601249124e-02,-2.437327857839237388e-02,6.715357790024492624e-02,1.422217552071547431e-01,-2.870866689483550505e-02,4.289198727310075676e-02,1.150489025084151240e-01,-7.095747821267689437e-02,6.324928738355553581e-02,-1.632845306901115068e-01,1.451031113924584059e-01,-1.349671926759894725e-01,-4.171499682449020252e-02,1.147711512634421935e-03,8.347739805581541606e-02,4.177942571946193645e-02,-7.216786156990086243e-02,-4.890549345070583503e-02,-9.490425453541823098e-02,4.355214049739052073e-02,6.316126616213457723e-02,9.229509570568339427e-03,8.573046449329257968e-02,1.272694273220816297e-01,-8.833903001029401111e-03,-2.606983498644459551e-01,-8.625556843686179448e-03,9.116691541276639166e-02,-8.944547803413557818e-02,1.278606035234652050e-01,-1.071383645339617219e-01,-1.013751336042392204e-01,2.004443613184611062e-01,5.840674456406521470e-02,-7.495569293272209832e-02,2.530633974229027847e-02,-3.955881665325213653e-02,4.324039612237702383e-03,1.422530223687637138e-02,1.434097685455589244e-01,-3.642710193478283787e-02,-2.005704643156412392e-01,7.796135226007043506e-02,-7.423661602846316765e-02,7.645151930380281180e-02,-4.550098479696506465e-02,-4.868953196179912069e-02,-6.304452412785327420e-02,-1.632008574296542336e-02,-1.064583940408330015e-01,8.295402894757444856e-02,9.947035646313770463e-02,-1.656905369016282992e-01,5.244243223499249484e-02,2.806792037042505836e-02,8.975567174687708316e-02,6.150584861575146556e-02,1.479868955126505681e-01,-1.339493054123088167e-01,-1.049883042450431569e-01,-1.364031554071686025e-03,8.737353892944918488e-02,2.384522709208817398e-02,-1.072949516349920931e-02,6.568526789535066024e-02,7.725276091863279848e-02,1.517232861077398853e-01,1.034021812009066205e-01,-2.089630678008808085e-01,4.056204582572110751e-02,-1.595868278554094313e-02,-4.763851284800674907e-02,-1.928797197324493840e-01,-1.225875280454691851e-01,-1.456120358005077164e-01,-2.349637442065830861e-01,1.165588435798990963e-01,-5.287764619073048733e-02,7.341857112395623608e-02,1.951032636669369214e-01,2.337190368933853707e-02,3.351858144919040577e-02,1.041495399686563766e-01,5.702633127856729031e-03,-1.012034239688540393e-02,-7.066271219067650142e-03,1.191279014346507958e-02,-1.934521643329710772e-01,-9.487004591153479216e-02,1.080962568491181386e-01,7.303459081310395562e-02,-8.207400118648573717e-03,-5.862422420203698692e-02,-1.699585973321408872e-01,-2.383737353387669344e-01,-7.233329877664534946e-02,3.155778434422150391e-02,-1.415598493418327719e-01,1.004159928954538317e-01,-5.400317896740915863e-02,6.782318644547740555e-03,-2.316957249938664531e-01,1.372672412140790443e-01,1.291107008991543015e-01,-7.382861279958045572e-03,-9.182936956759686631e-02,1.885154877565303408e-02,4.115608688203613308e-02,-1.349423225997598008e-01,9.584290014537515112e-02,-8.899469857968733688e-02,8.205970883765878465e-02,-2.324124535343571191e-02,-1.746229833319101754e-02,1.377067668513755339e-01,-3.705407096893446883e-02,-2.260505637093011277e-01,-5.331319037545386580e-02,1.430269545135553211e-01,8.827194014601623395e-02,-1.644993292823954401e-01,-1.935261585422678662e-02,-1.162490208341467046e-01,-9.784194568533707836e-02,-8.848958615063459709e-02,-2.331144518480564032e-01,-1.381096517795805251e-02,3.445589689625339069e-02,-4.644960229035855620e-02,1.498839433276050737e-01,-8.565608280904898897e-02,2.907570047174794919e-02,-6.171332662336912606e-03,-8.945398290570649724e-02,-1.002531899439590563e-01,9.862159551433455351e-02,8.193106160791974180e-02,3.621625771998149279e-02,-1.270114054375856005e-01,-6.221873460963944780e-02,6.506349694781016213e-02,5.642992324316452313e-02,-1.859913807178051881e-01,-5.344915217049732437e-02,5.564301605824016617e-03,6.997626868136781753e-02,-1.407313478314493049e-01,6.508772108674837353e-02,-2.056719401929402169e-02,-9.679914749123910700e-02,-4.426869255890704402e-02,4.667691315717036743e-02,-5.705814182768900733e-02,-1.949941523379632169e-01,4.180639144270111018e-02,1.463665654202884192e-01,4.496509191171903924e-02,1.180467672720509342e-01,-1.798605172224976637e-02,-1.035432913635120356e-01,-9.296765082181641937e-03,-7.684605025359070307e-02,2.237036016756347237e-02,4.537037732309177201e-02,-5.015705244616134456e-02,-1.133553428884833680e-01,-1.404615886118596724e-01,-1.448877136698160928e-01,-1.182948170276242467e-01,-1.421504374103719770e-01,1.900554712236520449e-01,8.156405755886730891e-02,-1.089287388499804582e-01,-6.803570452192839180e-02,7.536588138007441207e-02,-2.249571500275582836e-01,-4.288216241424362973e-01,4.096161341417235702e-03,-1.164856286531777974e-01,-2.332776262625240252e-02,-6.353808814458813958e-02,-2.132245150052995974e-01,7.303101919682963850e-02,7.883704084164760983e-02,-9.900950584467899107e-02,6.237743173102068550e-02,8.048505725386248533e-02,-6.569527695673590961e-02,-8.291038346870829856e-02,-1.556933368743091406e-01,-8.672951258073224867e-02,-7.613173392758676439e-02,-2.882845153415158207e-02,-4.777333712413013578e-02,-1.142568230462657763e-01,3.921744549503037268e-03,1.279165965666415328e-01,7.511906207183284556e-02,-1.294748625564158262e-01,-6.598384582154920297e-03,1.753347874791128524e-01,1.048822857437384064e-02,1.923137737324217833e-01,-3.321993613220624447e-02,-5.541957807711106465e-02,-2.621441755517268588e-02,-4.641635003371240992e-02,-1.939546212006913219e-03,1.573071596890756804e-02,-4.393550168970192238e-02,-3.009458776835074144e-03,-2.399134865555417953e-03,-6.175009460127330041e-02,-1.856303311222806673e-01,-7.479317712188676692e-02,-1.424166902920215860e-01,-1.663358673621390393e-01,-1.066485656356767342e-01,4.233461762482302985e-03,-2.925968529241568250e-02,-1.466158325141054819e-01,6.690143460882527759e-02,-1.164831594089564826e-01,-1.092539026645046041e-01,-1.094811070335781622e-01,1.451971447831612583e-01,1.041542838430726536e-01,2.782910776618115201e-02,-9.653749023878535965e-03,-6.545537925628078235e-02,-1.056432688629719424e-01,-7.464064847593207541e-02,-4.536374969371118233e-03,4.223755918405716625e-02,-1.081102288849281889e-01,2.062343868219548015e-01,-1.203243123359095251e-01,-3.137925360669303609e-01,-2.095584882625505241e-01,-1.156490117107547982e-01,-1.094045280985376373e-02,1.563921281649684192e-01,-2.658524969360900880e-02,8.074697868368897746e-02,-7.844595151227862218e-02,-5.708838686830612283e-03,1.263043129822454258e-01,-9.519573921174989684e-02,-8.202750459238317138e-02,1.738078549449102381e-02,-1.257237682179188631e-01,-3.008116307150994762e-01,-7.708942556290544756e-02,-1.162296289316509280e-02,-2.964666277715179155e-02,6.707950681133436829e-03,-4.613877524526990154e-02,-1.587103465428951754e-02,-5.397816257300579006e-03,-1.411607377435221966e-01,1.225750131133603558e-02,2.723378160370901885e-02,-5.417610585342030188e-02,-1.282984807181353493e-01,-8.531390933796163811e-02,-8.423404171616385994e-02,-2.332448958006876766e-02,-3.723627165642642844e-02,-3.907029198080378546e-02,1.019139315769202886e-01,3.383983261917078433e-02,1.298606372236435214e-01,2.888051553909270000e-03,2.581714574001543402e-02,-1.566297552672629989e-01,-3.827357091388964433e-02,4.258402089070524865e-01,5.544261033827801999e-02,4.834875317659429600e-02,1.697315178207821698e-02,1.144113371058437245e-01,-1.421710953332426253e-01,-5.126548850725294593e-02,-2.037947047107108167e-01,7.227135491434541481e-02,1.502417277857884814e-01,3.974676229693693136e-02,-8.009784869336479540e-02,-1.398808222115565381e-01,-2.048559945627357881e-01,-2.361528325193475858e-02,3.837448605704846250e-02,-1.261128578143884682e-01,1.220544823715856951e-02,-5.930107910322486228e-03,-3.324524687705633641e-02,1.214497273114096589e-03,9.532296437771842212e-04,-1.799963284043766820e-01,3.201680727765302166e-03,-2.036304128584850645e-02,-1.098203156994564250e-02,-4.941946357113342209e-02,-2.963460928374799658e-02,1.490440601821622080e-01,-6.714033591376286636e-02,-1.254428731558772658e-01,-2.523408802935428116e-02,-2.204338680342383117e-01,-1.707892034281267499e-02,-4.753775236873386545e-02,-3.553096834227365518e-03,-2.245005921217660405e-01,-5.534330178248109827e-02,-1.001174523696092000e-01,-1.349286907556604131e-01,-1.216229769184580534e-02,-4.009950479021980041e-02,-2.390170641123570139e-01,-1.072675857708947286e-02,-4.080809572459479645e-02,-1.493865678001011499e-01,-1.003979362412755483e-01,4.487012566892674414e-02,6.972761912716794741e-02,4.113865371815556699e-02,-1.588768815538087881e-02,-2.060693842793841768e-01,-1.021472627539729283e-01,-2.559502987037931901e-02,8.317740517263733091e-02,-1.800297960103280567e-02,-2.182512209646112200e-01,1.372734341607847498e-03,-1.187009187295986687e-02,-8.429845201925167952e-02,-1.143017179176673004e-01,-4.846101479283648761e-02,-8.340866814620408187e-04,3.504845028565638926e-02,-1.934686742535759174e-01,1.750638425490506633e-01,4.023213596733020425e-02,1.095356306989881678e-01,-8.799601208317153755e-02,8.656999029338893759e-02,-3.935914567939022279e-02,-9.185024339282112787e-03,1.695484029455918418e-01,4.267029093936005463e-02,-4.425938187141099239e-02,-1.167046676063897004e-01,-2.809111618206558414e-03,3.576343711694135452e-02,6.649606368036253823e-02,-1.380588571084852556e-01,1.886787819360589286e-02,-1.141597133318657392e-01,-1.667999665896352512e-01,1.253923299686464654e-01,1.136415196274844289e-02,6.196445415513598953e-02,-6.567273101243416289e-02,-1.170733426874452296e-02,-3.970783867629251729e-02,-1.733752037172014634e-02,1.890012892791852195e-01,-7.847141636278893995e-02,-1.107450364084281019e-01,-2.818822068515067919e-02,3.643749115369288027e-02,-5.766245667414379543e-03,-4.283627696141001362e-02,8.677750804652148431e-02,-1.824114966472116794e-01,3.282709205442437689e-02,-8.009857317774071728e-02,2.329569171060166116e-03,3.155227951498226768e-02,-3.807698026358387333e-02,-2.611580244514401239e-02,-9.601597056527841345e-02,1.206282182053040331e-01,1.546745963308581578e-02,-3.496188245911364123e-01,-2.420601550442403604e-01,-2.001149308566285145e-01,-1.430182327794259078e-01,-2.130949921348013198e-01,2.165816160820804165e-02,-7.931384815587605441e-02,-1.525736314777036140e-01,-5.677076103619686093e-02,-3.019007186870021481e-02,5.091561072070235894e-02,-1.615086733438297201e-02,1.330277717792523705e-02,-5.651670169920575831e-02,7.375928101215281640e-02,-1.385363438705878580e-01,8.717337488526842593e-02,-1.129187683902071193e-01,-2.668546787236368845e-01,-1.120795189686112636e-01,9.609355703060856735e-02,1.161689719183370412e-01,2.168323109971150020e-01,1.741258423544908840e-01,5.062240615119086712e-03,-2.865233506917777562e-02,2.811845329724304600e-03,1.436966304693109570e-02,-5.573667733115988260e-02,-1.208808453001895683e-01,-2.022082454782043459e-01,8.092547313575468304e-02,6.562857744338870813e-02,5.822238654538326036e-02,6.079461614098098654e-02,6.622619462385173628e-02,2.399754023964641714e-01,1.487425509356306019e-01,2.257087369242262165e-01,-1.792855191695039707e-01,-6.509212520423503234e-02,6.582257229884863614e-02,9.025437641565982327e-02,-8.869800040839068145e-02,1.298936449479074287e-03,-2.062939869413096469e-02,7.495809312219192666e-02,9.064836403893027084e-02,1.817801568615252938e-02,-7.152622520671621242e-02,-1.705794312364704302e-01,3.899312312409394798e-02,1.223413752486173789e-01,-1.679307238822608794e-01,-1.465034634521533707e-02,-5.634913537021536689e-02,-7.424007707517803201e-02,-8.278803520970115515e-03,-1.145943493105442690e-01,-7.652058209249976151e-02,-5.274504876295422334e-02,-1.613367365832675537e-01,-1.366760211834658900e-01,-6.958521576706810929e-02,-9.205804371716069107e-03,-1.059898649533296822e-01,7.805552589186529056e-02,-1.282170940041647833e-01,-1.826017256699626612e-01,-5.911797537975228140e-02,1.747255160460441797e-02,-6.953017766957325652e-02,-6.355278287098600765e-02,-7.318756059846756590e-02,-1.102995056265815843e-01,-5.333894269345677841e-02,6.197363117833480650e-02,1.959567338802811406e-02,-2.789196133518950099e-03,6.330035130926808806e-02,2.095919686113189573e-01,-1.109205159103101579e-01,-7.469888220562359571e-02,1.695059997406062058e-01,3.603529833624950773e-02,-3.605670652670664444e-02,9.952561671092102769e-02,1.795050958334086788e-01,8.627285568505871360e-02,1.308540792344608794e-01,6.008862979062542381e-02,5.083629932408636337e-02,-7.205549640003705569e-02,-1.038255077855548825e-01,-1.058067806244386289e-01,-6.430915866768949218e-02,2.985043371194949502e-02,-3.700950252534317142e-02,1.131696071011419197e-01,6.938211164110910656e-02,7.174631097152810166e-02,-1.058488451094780902e-01,-8.243420187761934040e-03,-6.615154191837589737e-02,6.446039270266443189e-02,-5.188217128611164602e-02,3.004607955996566743e-02,7.574133225586901497e-02,4.156396282622410593e-02,-9.609292383459253073e-02,-5.175792271889746721e-02,-9.352034245742596452e-02,-5.142734041703150155e-02,-1.097145993056613117e-01,-2.100237361366115718e-01,-9.472171674676369002e-02,1.553345929502601697e-01,3.886674895885718767e-02,2.141622272222684295e-02,4.960794398714570008e-02,1.167458024778827985e-01,-2.204468175748934902e-02,-1.046480005436126459e-01
